-1.202984E-4,-6.65591E-5,0.9997991253,-0.9978517865,-0.9997050187,0.6511047886,-0.9999910298,-0.790450245,-0.456232164,-0.3227445401,-0.25,2
-1.202984E-4,-6.65591E-5,0.9997991253,-0.9978517865,-0.9997050187,0.6511047886,-0.9999910298,-0.790450245,-0.456232164,-0.3227445401,-0.25,2
-1.202984E-4,-6.65591E-5,0.9997991253,-0.9978517865,-0.9997050187,0.6511047886,-0.9999910298,-0.790450245,-0.456232164,-0.3227445401,-0.25,2
-1.202984E-4,-6.65591E-5,0.9997991253,-0.9978517865,-0.9997050187,0.6511047886,-0.9999910298,-0.790450245,-0.456232164,-0.3227445401,-0.25,2
-1.202984E-4,-6.65591E-5,0.9997991253,-0.9978517865,-0.9997050187,0.6511047886,-0.9999910298,-0.790450245,-0.456232164,-0.3227445401,-0.25,2
-1.202984E-4,-6.65591E-5,0.9997991253,-0.9978517865,-0.9997050187,0.6511047886,-0.9999910298,-0.790450245,-0.456232164,-0.3227445401,-0.25,2
-1.202984E-4,-6.65591E-5,0.9997991253,-0.9978517865,-0.9997050187,0.6511047886,-0.9999910298,-0.790450245,-0.456232164,-0.3227445401,-0.25,2
-1.202984E-4,-6.65591E-5,0.9997991253,-0.9978517865,-0.9997050187,0.6511047886,-0.9999910298,-0.790450245,-0.456232164,-0.3227445401,-0.25,2
0.0214820453,0.8996385945,-0.326013034,-0.0118683925,0.8116952218,-0.0036661133,-0.8153337861,0.0166792525,-0.0143878859,0.9264741739,-0.25,4
0.0216832165,0.8883134094,-0.3107021611,-0.1508406919,0.5793435712,-0.006269905,-0.8528886565,0.0078378217,-0.0197174045,0.9111941787,-0.25,4
-0.8121440907,-0.4693631037,-0.3275778145,-0.5851025514,0.9901870668,0.3637643242,-0.9526762529,-0.0030135903,0.9062648,-0.3227426476,-0.25,5
-0.8121440907,-0.4693631037,-0.3275778145,-0.5851025514,0.9901870668,0.3637643242,-0.9526762529,-0.0030135903,0.9062648,-0.3227426476,-0.25,5
-0.8121440907,-0.4693631037,-0.3275778145,-0.5851025514,0.9901870668,0.3637643242,-0.9526762529,-0.0030135903,0.9062648,-0.3227426476,-0.25,5
-0.8121440907,-0.4693631037,-0.3275778145,-0.5851025514,0.9901870668,0.3637643242,-0.9526762529,-0.0030135903,0.9062648,-0.3227426476,-0.25,5
-1.550834E-4,-8.84439E-5,0.9997450088,-0.9987058314,-0.9996199944,0.6650367805,-0.9999885543,-0.7904181854,-0.4561747636,-0.322747052,-0.25,2
-1.550834E-4,-8.84439E-5,0.9997450088,-0.9987058314,-0.9996199944,0.6650367805,-0.9999885543,-0.7904181854,-0.4561747636,-0.322747052,-0.25,2
-1.550834E-4,-8.84439E-5,0.9997450088,-0.9987058314,-0.9996199944,0.6650367805,-0.9999885543,-0.7904181854,-0.4561747636,-0.322747052,-0.25,2
-1.550834E-4,-8.84439E-5,0.9997450088,-0.9987058314,-0.9996199944,0.6650367805,-0.9999885543,-0.7904181854,-0.4561747636,-0.322747052,-0.25,2
-1.550834E-4,-8.84439E-5,0.9997450088,-0.9987058314,-0.9996199944,0.6650367805,-0.9999885543,-0.7904181854,-0.4561747636,-0.322747052,-0.25,2
-1.550834E-4,-8.84439E-5,0.9997450088,-0.9987058314,-0.9996199944,0.6650367805,-0.9999885543,-0.7904181854,-0.4561747636,-0.322747052,-0.25,2
-1.550834E-4,-8.84439E-5,0.9997450088,-0.9987058314,-0.9996199944,0.6650367805,-0.9999885543,-0.7904181854,-0.4561747636,-0.322747052,-0.25,2
-0.81454619,-0.4711821111,-0.3327214419,-0.5836798477,0.9972721639,0.0118145336,-0.9542983234,3.983209E-4,0.9109202965,-0.322743068,-0.25,5
-0.81454619,-0.4711821111,-0.3327214419,-0.5836798477,0.9972721639,0.0118145336,-0.9542983234,3.983209E-4,0.9109202965,-0.322743068,-0.25,5
2.288479E-4,0.051062068,0.9271872465,-0.934718523,-0.9960073735,-0.219114129,-0.9998485544,-0.7471673705,-0.4316331422,-0.2526353195,-0.25,2
-0.7901888776,-0.456388542,-0.2908753915,-0.5965479404,0.9355552523,0.5973617303,-0.9525241052,-0.0250268818,0.8690087458,-0.3227442035,-0.25,5
-0.7901888776,-0.456388542,-0.2908753915,-0.5965479404,0.9355552523,0.5973617303,-0.9525241052,-0.0250268818,0.8690087458,-0.3227442035,-0.25,5
0.0137164136,0.7157125175,-0.0473110235,-0.5362859648,-0.5500312192,-0.0325569283,-0.9688035904,-0.1560046519,-0.1054047444,0.6686227181,-0.25,4
-4.47922E-5,3.58643E-5,0.9998368893,-0.9913892522,-0.999886692,0.5300166452,-0.9999966991,-0.7904721741,-0.4563292433,-0.3226632289,-0.25,2
-4.47922E-5,3.58643E-5,0.9998368893,-0.9913892522,-0.999886692,0.5300166452,-0.9999966991,-0.7904721741,-0.4563292433,-0.3226632289,-0.25,2
-4.47922E-5,3.58643E-5,0.9998368893,-0.9913892522,-0.999886692,0.5300166452,-0.9999966991,-0.7904721741,-0.4563292433,-0.3226632289,-0.25,2
-4.47922E-5,3.58643E-5,0.9998368893,-0.9913892522,-0.999886692,0.5300166452,-0.9999966991,-0.7904721741,-0.4563292433,-0.3226632289,-0.25,2
-4.47922E-5,3.58643E-5,0.9998368893,-0.9913892522,-0.999886692,0.5300166452,-0.9999966991,-0.7904721741,-0.4563292433,-0.3226632289,-0.25,2
-2.418659E-4,-1.393635E-4,0.9996045373,-0.999338395,-0.9994075673,0.6788100661,-0.9999826509,-0.7903349139,-0.456029661,-0.322748198,-0.25,2
-2.418659E-4,-1.393635E-4,0.9996045373,-0.999338395,-0.9994075673,0.6788100661,-0.9999826509,-0.7903349139,-0.456029661,-0.322748198,-0.25,2
-2.880646E-4,-1.661296E-4,0.9995292396,-0.9994357243,-0.9992944421,0.6823290177,-0.9999795678,-0.7902902703,-0.4559522343,-0.3227483298,-0.25,2
-2.880646E-4,-1.661296E-4,0.9995292396,-0.9994357243,-0.9992944421,0.6823290177,-0.9999795678,-0.7902902703,-0.4559522343,-0.3227483298,-0.25,2
-2.880646E-4,-1.661296E-4,0.9995292396,-0.9994357243,-0.9992944421,0.6823290177,-0.9999795678,-0.7902902703,-0.4559522343,-0.3227483298,-0.25,2
-2.880646E-4,-1.661296E-4,0.9995292396,-0.9994357243,-0.9992944421,0.6823290177,-0.9999795678,-0.7902902703,-0.4559522343,-0.3227483298,-0.25,2
-2.880646E-4,-1.661296E-4,0.9995292396,-0.9994357243,-0.9992944421,0.6823290177,-0.9999795678,-0.7902902703,-0.4559522343,-0.3227483298,-0.25,2
-2.880646E-4,-1.661296E-4,0.9995292396,-0.9994357243,-0.9992944421,0.6823290177,-0.9999795678,-0.7902902703,-0.4559522343,-0.3227483298,-0.25,2
0.021392827,0.8981578289,-0.3237268485,-0.0421596274,0.7697254535,-0.0026386725,-0.8230890694,0.0152425581,-0.0151176127,0.9243845629,-0.25,4
-0.7811570683,-0.4710998997,-0.333178495,-0.576542971,0.99666933,-0.6174276933,-0.9460843733,0.0169011134,0.8831180152,-0.3225205063,-0.25,5
-0.7811570683,-0.4710998997,-0.333178495,-0.576542971,0.99666933,-0.6174276933,-0.9460843733,0.0169011134,0.8831180152,-0.3225205063,-0.25,5
-0.813394368,-0.4710781362,-0.3324440655,-0.5833904284,0.9967983897,-0.0145747529,-0.9543420892,7.075971E-4,0.9098110811,-0.3227376751,-0.25,5
-0.813394368,-0.4710781362,-0.3324440655,-0.5833904284,0.9967983897,-0.0145747529,-0.9543420892,7.075971E-4,0.9098110811,-0.3227376751,-0.25,5
-0.7811570683,-0.4710998997,-0.333178495,-0.576542971,0.99666933,-0.6174276933,-0.9460843733,0.0169011134,0.8831180152,-0.3225205063,-0.25,5
-0.7811570683,-0.4710998997,-0.333178495,-0.576542971,0.99666933,-0.6174276933,-0.9460843733,0.0169011134,0.8831180152,-0.3225205063,-0.25,5
-0.8105340492,-0.4713706859,-0.3332993484,-0.5825732144,0.9971817979,-0.5078691967,-0.9443017953,0.0028502737,0.9078502223,-0.3227286939,-0.25,5
-0.8105340492,-0.4713706859,-0.3332993484,-0.5825732144,0.9971817979,-0.5078691967,-0.9443017953,0.0028502737,0.9078502223,-0.3227286939,-0.25,5
-0.7805419261,-0.4508085237,-0.275093414,-0.6014180583,0.9119147201,0.6153246457,-0.9528408375,-0.0343929828,0.8528156052,-0.3227439783,-0.25,5
-0.7805419261,-0.4508085237,-0.275093414,-0.6014180583,0.9119147201,0.6153246457,-0.9528408375,-0.0343929828,0.8528156052,-0.3227439783,-0.25,5
-0.7805419261,-0.4508085237,-0.275093414,-0.6014180583,0.9119147201,0.6153246457,-0.9528408375,-0.0343929828,0.8528156052,-0.3227439783,-0.25,5
-0.7805419261,-0.4508085237,-0.275093414,-0.6014180583,0.9119147201,0.6153246457,-0.9528408375,-0.0343929828,0.8528156052,-0.3227439783,-0.25,5
0.0137164136,0.7157125175,-0.0473110235,-0.5362859648,-0.5500312192,-0.0325569283,-0.9688035904,-0.1560046519,-0.1054047444,0.6686227181,-0.25,4
0.0137164136,0.7157125175,-0.0473110235,-0.5362859648,-0.5500312192,-0.0325569283,-0.9688035904,-0.1560046519,-0.1054047444,0.6686227181,-0.25,4
0.0567540159,0.8299381327,-0.3169638918,-0.0439101317,0.7640834001,-0.0964301656,-0.822305671,0.0460831181,-0.0368468181,0.8599260505,-0.25,4
0.0514412581,0.8484695463,-0.3292657862,0.0676219172,0.9072544445,-0.1025859536,-0.793027866,0.0480569042,-0.0297674084,0.8808132587,-0.25,4
0.0514412581,0.8484695463,-0.3292657862,0.0676219172,0.9072544445,-0.1025859536,-0.793027866,0.0480569042,-0.0297674084,0.8808132587,-0.25,4
-0.0011530859,-6.65721E-4,0.9981168137,-0.9992710453,-0.9971759685,0.6981923126,-0.9999218256,-0.7894527862,-0.4545015895,-0.3227485337,-0.25,2
-0.0011530859,-6.65721E-4,0.9981168137,-0.9992710453,-0.9971759685,0.6981923126,-0.9999218256,-0.7894527862,-0.4545015895,-0.3227485337,-0.25,2
-0.0011530859,-6.65721E-4,0.9981168137,-0.9992710453,-0.9971759685,0.6981923126,-0.9999218256,-0.7894527862,-0.4545015895,-0.3227485337,-0.25,2
-0.0011530859,-6.65721E-4,0.9981168137,-0.9992710453,-0.9971759685,0.6981923126,-0.9999218256,-0.7894527862,-0.4545015895,-0.3227485337,-0.25,2
-0.0011530859,-6.65721E-4,0.9981168137,-0.9992710453,-0.9971759685,0.6981923126,-0.9999218256,-0.7894527862,-0.4545015895,-0.3227485337,-0.25,2
0.023281972,0.8990806887,-0.3297129791,0.0574170838,0.8909011656,-0.0204725913,-0.7990588656,0.0206316411,-0.0141183525,0.9271590301,-0.25,4
-0.0011530859,-6.65721E-4,0.9981168137,-0.9992710453,-0.9971759685,0.6981923126,-0.9999218256,-0.7894527862,-0.4545015895,-0.3227485337,-0.25,2
-0.0011530859,-6.65721E-4,0.9981168137,-0.9992710453,-0.9971759685,0.6981923126,-0.9999218256,-0.7894527862,-0.4545015895,-0.3227485337,-0.25,2
-0.0011530859,-6.65721E-4,0.9981168137,-0.9992710453,-0.9971759685,0.6981923126,-0.9999218256,-0.7894527862,-0.4545015895,-0.3227485337,-0.25,2
-0.0011530859,-6.65721E-4,0.9981168137,-0.9992710453,-0.9971759685,0.6981923126,-0.9999218256,-0.7894527862,-0.4545015895,-0.3227485337,-0.25,2
-0.8131107505,-0.4713760529,-0.3332824304,-0.583164557,0.9973771786,-0.3918516301,-0.9475449441,0.0015909588,0.9100039962,-0.3227390536,-0.25,5
-0.8131107505,-0.4713760529,-0.3332824304,-0.583164557,0.9973771786,-0.3918516301,-0.9475449441,0.0015909588,0.9100039962,-0.3227390536,-0.25,5
-0.8134389832,-0.4708257078,-0.3317283156,-0.5836090578,0.9959247035,0.09669547,-0.9541608242,4.95921E-5,0.909481063,-0.3227382479,-0.25,5
-0.8134389832,-0.4708257078,-0.3317283156,-0.5836090578,0.9959247035,0.09669547,-0.9541608242,4.95921E-5,0.909481063,-0.3227382479,-0.25,5
0.0246115732,0.8971365047,-0.3303168202,0.0730261259,0.9060788469,-0.031649334,-0.7959238312,0.0222961258,-0.0146439012,0.92557913,-0.25,4
0.0215657472,0.8925711377,-0.3163598714,-0.1121102016,0.6544346014,-0.0044817509,-0.8419576152,0.0110636936,-0.0177236118,0.9169069533,-0.25,4
-0.7972278703,-0.4604657695,-0.3024069757,-0.5929982697,0.952815106,0.5762067056,-0.9523296462,-0.0181784819,0.8808325043,-0.3227443831,-0.25,5
-0.7972278703,-0.4604657695,-0.3024069757,-0.5929982697,0.952815106,0.5762067056,-0.9523296462,-0.0181784819,0.8808325043,-0.3227443831,-0.25,5
-1.362784E-4,-7.69042E-5,0.9997746936,-0.998333146,-0.9996659802,0.6587262428,-0.9999898798,-0.7904357748,-0.4562059435,-0.3227460984,-0.25,2
-1.362784E-4,-7.69042E-5,0.9997746936,-0.998333146,-0.9996659802,0.6587262428,-0.9999898798,-0.7904357748,-0.4562059435,-0.3227460984,-0.25,2
-1.362784E-4,-7.69042E-5,0.9997746936,-0.998333146,-0.9996659802,0.6587262428,-0.9999898798,-0.7904357748,-0.4562059435,-0.3227460984,-0.25,2
-1.362784E-4,-7.69042E-5,0.9997746936,-0.998333146,-0.9996659802,0.6587262428,-0.9999898798,-0.7904357748,-0.4562059435,-0.3227460984,-0.25,2
-1.362784E-4,-7.69042E-5,0.9997746936,-0.998333146,-0.9996659802,0.6587262428,-0.9999898798,-0.7904357748,-0.4562059435,-0.3227460984,-0.25,2
-1.362784E-4,-7.69042E-5,0.9997746936,-0.998333146,-0.9996659802,0.6587262428,-0.9999898798,-0.7904357748,-0.4562059435,-0.3227460984,-0.25,2
-1.362784E-4,-7.69042E-5,0.9997746936,-0.998333146,-0.9996659802,0.6587262428,-0.9999898798,-0.7904357748,-0.4562059435,-0.3227460984,-0.25,2
-1.362784E-4,-7.69042E-5,0.9997746936,-0.998333146,-0.9996659802,0.6587262428,-0.9999898798,-0.7904357748,-0.4562059435,-0.3227460984,-0.25,2
-1.362784E-4,-7.69042E-5,0.9997746936,-0.998333146,-0.9996659802,0.6587262428,-0.9999898798,-0.7904357748,-0.4562059435,-0.3227460984,-0.25,2
-0.8142407011,-0.4713071943,-0.3330777805,-0.5834996792,0.9975268737,-0.142516445,-0.9535240665,8.628873E-4,0.910846967,-0.322742245,-0.25,5
-0.8142407011,-0.4713071943,-0.3330777805,-0.5834996792,0.9975268737,-0.142516445,-0.9535240665,8.628873E-4,0.910846967,-0.322742245,-0.25,5
0.0216832165,0.8883134094,-0.3107021611,-0.1508406919,0.5793435712,-0.006269905,-0.8528886565,0.0078378217,-0.0197174045,0.9111941787,-0.25,4
-0.8128757695,-0.4696840658,-0.3284800723,-0.5850297191,0.9915552618,0.3689661959,-0.9525839422,-0.0025648037,0.9073419488,-0.3227444421,-0.25,5
-0.8128757695,-0.4696840658,-0.3284800723,-0.5850297191,0.9915552618,0.3689661959,-0.9525839422,-0.0025648037,0.9073419488,-0.3227444421,-0.25,5
0.0216832165,0.8883134094,-0.3107021611,-0.1508406919,0.5793435712,-0.006269905,-0.8528886565,0.0078378217,-0.0197174045,0.9111941787,-0.25,4
-0.8107964625,-0.4690749952,-0.3267884789,-0.5846261403,0.9888714913,0.3031791349,-0.9531288828,-0.003065726,0.9047280053,-0.3227343986,-0.25,5
-0.8107964625,-0.4690749952,-0.3267884789,-0.5846261403,0.9888714913,0.3031791349,-0.9531288828,-0.003065726,0.9047280053,-0.3227343986,-0.25,5
-0.8107964625,-0.4690749952,-0.3267884789,-0.5846261403,0.9888714913,0.3031791349,-0.9531288828,-0.003065726,0.9047280053,-0.3227343986,-0.25,5
-0.8107964625,-0.4690749952,-0.3267884789,-0.5846261403,0.9888714913,0.3031791349,-0.9531288828,-0.003065726,0.9047280053,-0.3227343986,-0.25,5
-0.8107964625,-0.4690749952,-0.3267884789,-0.5846261403,0.9888714913,0.3031791349,-0.9531288828,-0.003065726,0.9047280053,-0.3227343986,-0.25,5
-0.8107964625,-0.4690749952,-0.3267884789,-0.5846261403,0.9888714913,0.3031791349,-0.9531288828,-0.003065726,0.9047280053,-0.3227343986,-0.25,5
-0.002057344,-0.0011878616,0.9966399738,-0.998829674,-0.99496127,0.7018808281,-0.9998608417,-0.788577071,-0.4529850037,-0.3227485327,-0.25,2
0.023281972,0.8990806887,-0.3297129791,0.0574170838,0.8909011656,-0.0204725913,-0.7990588656,0.0206316411,-0.0141183525,0.9271590301,-0.25,4
-0.002057344,-0.0011878616,0.9966399738,-0.998829674,-0.99496127,0.7018808281,-0.9998608417,-0.788577071,-0.4529850037,-0.3227485327,-0.25,2
-0.002057344,-0.0011878616,0.9966399738,-0.998829674,-0.99496127,0.7018808281,-0.9998608417,-0.788577071,-0.4529850037,-0.3227485327,-0.25,2
-0.002057344,-0.0011878616,0.9966399738,-0.998829674,-0.99496127,0.7018808281,-0.9998608417,-0.788577071,-0.4529850037,-0.3227485327,-0.25,2
-0.002057344,-0.0011878616,0.9966399738,-0.998829674,-0.99496127,0.7018808281,-0.9998608417,-0.788577071,-0.4529850037,-0.3227485327,-0.25,2
-0.002057344,-0.0011878616,0.9966399738,-0.998829674,-0.99496127,0.7018808281,-0.9998608417,-0.788577071,-0.4529850037,-0.3227485327,-0.25,2
-0.002057344,-0.0011878616,0.9966399738,-0.998829674,-0.99496127,0.7018808281,-0.9998608417,-0.788577071,-0.4529850037,-0.3227485327,-0.25,2
-0.002057344,-0.0011878616,0.9966399738,-0.998829674,-0.99496127,0.7018808281,-0.9998608417,-0.788577071,-0.4529850037,-0.3227485327,-0.25,2
-0.002057344,-0.0011878616,0.9966399738,-0.998829674,-0.99496127,0.7018808281,-0.9998608417,-0.788577071,-0.4529850037,-0.3227485327,-0.25,2
-0.8108202346,-0.4709886078,-0.3322357473,-0.5826829165,0.9963064479,-0.1007583473,-0.9544356555,0.0017640802,0.9075430733,-0.3227231816,-0.25,5
-0.8108202346,-0.4709886078,-0.3322357473,-0.5826829165,0.9963064479,-0.1007583473,-0.9544356555,0.0017640802,0.9075430733,-0.3227231816,-0.25,5
0.0168126975,0.7343150704,-0.0816772598,-0.4954410632,-0.4707719394,-0.0342796149,-0.9621222138,-0.1325363461,-0.0953170624,0.6966961029,-0.25,4
-0.0038413892,-0.0022181032,0.9937259412,-0.9979259563,-0.9905915445,0.7045729905,-0.9997405148,-0.7868490619,-0.449992714,-0.3227485103,-0.25,2
-0.0038413892,-0.0022181032,0.9937259412,-0.9979259563,-0.9905915445,0.7045729905,-0.9997405148,-0.7868490619,-0.449992714,-0.3227485103,-0.25,2
-0.7682084211,-0.4709356591,-0.3331157611,-0.5736911921,0.9964933608,-0.6227980707,-0.9463892936,0.0230743481,0.8722051063,-0.3223908231,-0.25,5
-0.7682084211,-0.4709356591,-0.3331157611,-0.5736911921,0.9964933608,-0.6227980707,-0.9463892936,0.0230743481,0.8722051063,-0.3223908231,-0.25,5
-0.7901888776,-0.456388542,-0.2908753915,-0.5965479404,0.9355552523,0.5973617303,-0.9525241052,-0.0250268818,0.8690087458,-0.3227442035,-0.25,5
-0.7901888776,-0.456388542,-0.2908753915,-0.5965479404,0.9355552523,0.5973617303,-0.9525241052,-0.0250268818,0.8690087458,-0.3227442035,-0.25,5
-0.7901888776,-0.456388542,-0.2908753915,-0.5965479404,0.9355552523,0.5973617303,-0.9525241052,-0.0250268818,0.8690087458,-0.3227442035,-0.25,5
-0.7901888776,-0.456388542,-0.2908753915,-0.5965479404,0.9355552523,0.5973617303,-0.9525241052,-0.0250268818,0.8690087458,-0.3227442035,-0.25,5
-0.8138691581,-0.4712535102,-0.3329314566,-0.5834311563,0.9973669769,-0.1080386474,-0.9539012274,9.120754E-4,0.9104599681,-0.3227404641,-0.25,5
-0.8138691581,-0.4712535102,-0.3329314566,-0.5834311563,0.9973669769,-0.1080386474,-0.9539012274,9.120754E-4,0.9104599681,-0.3227404641,-0.25,5
0.4734252451,-0.2492635589,-0.3201765435,-0.1815439584,0.9399564221,-0.3889380732,-0.9061494634,0.5519890767,-0.2106144731,-0.1242089215,-0.25,3
0.4734252451,-0.2492635589,-0.3201765435,-0.1815439584,0.9399564221,-0.3889380732,-0.9061494634,0.5519890767,-0.2106144731,-0.1242089215,-0.25,3
0.0190768216,0.718896519,-0.0659489945,-0.4794100166,-0.47307671,-0.0420247971,-0.9621055671,-0.1395649011,-0.1019063681,0.6775446798,-0.25,4
0.102267282,0.7550118187,-0.3271017423,0.0415070614,0.8995387807,-0.1829533426,-0.8022388148,0.0970743493,-0.0582923955,0.7947999739,-0.25,4
2.288479E-4,0.051062068,0.9271872465,-0.934718523,-0.9960073735,-0.219114129,-0.9998485544,-0.7471673705,-0.4316331422,-0.2526353195,-0.25,2
-5.76929E-5,5.06242E-5,0.9997832036,-0.9887229438,-0.9998533929,0.5259823568,-0.9999957029,-0.7904401028,-0.4562963035,-0.3226324281,-0.25,2
-5.76929E-5,5.06242E-5,0.9997832036,-0.9887229438,-0.9998533929,0.5259823568,-0.9999957029,-0.7904401028,-0.4562963035,-0.3226324281,-0.25,2
-5.76929E-5,5.06242E-5,0.9997832036,-0.9887229438,-0.9998533929,0.5259823568,-0.9999957029,-0.7904401028,-0.4562963035,-0.3226324281,-0.25,2
-5.76929E-5,5.06242E-5,0.9997832036,-0.9887229438,-0.9998533929,0.5259823568,-0.9999957029,-0.7904401028,-0.4562963035,-0.3226324281,-0.25,2
-5.76929E-5,5.06242E-5,0.9997832036,-0.9887229438,-0.9998533929,0.5259823568,-0.9999957029,-0.7904401028,-0.4562963035,-0.3226324281,-0.25,2
-5.76929E-5,5.06242E-5,0.9997832036,-0.9887229438,-0.9998533929,0.5259823568,-0.9999957029,-0.7904401028,-0.4562963035,-0.3226324281,-0.25,2
-5.76929E-5,5.06242E-5,0.9997832036,-0.9887229438,-0.9998533929,0.5259823568,-0.9999957029,-0.7904401028,-0.4562963035,-0.3226324281,-0.25,2
-4.47922E-5,3.58643E-5,0.9998368893,-0.9913892522,-0.999886692,0.5300166452,-0.9999966991,-0.7904721741,-0.4563292433,-0.3226632289,-0.25,2
-4.47922E-5,3.58643E-5,0.9998368893,-0.9913892522,-0.999886692,0.5300166452,-0.9999966991,-0.7904721741,-0.4563292433,-0.3226632289,-0.25,2
-4.47922E-5,3.58643E-5,0.9998368893,-0.9913892522,-0.999886692,0.5300166452,-0.9999966991,-0.7904721741,-0.4563292433,-0.3226632289,-0.25,2
-4.47922E-5,3.58643E-5,0.9998368893,-0.9913892522,-0.999886692,0.5300166452,-0.9999966991,-0.7904721741,-0.4563292433,-0.3226632289,-0.25,2
-0.8131107505,-0.4713760529,-0.3332824304,-0.583164557,0.9973771786,-0.3918516301,-0.9475449441,0.0015909588,0.9100039962,-0.3227390536,-0.25,5
-0.8131107505,-0.4713760529,-0.3332824304,-0.583164557,0.9973771786,-0.3918516301,-0.9475449441,0.0015909588,0.9100039962,-0.3227390536,-0.25,5
-0.8131107505,-0.4713760529,-0.3332824304,-0.583164557,0.9973771786,-0.3918516301,-0.9475449441,0.0015909588,0.9100039962,-0.3227390536,-0.25,5
-0.8131107505,-0.4713760529,-0.3332824304,-0.583164557,0.9973771786,-0.3918516301,-0.9475449441,0.0015909588,0.9100039962,-0.3227390536,-0.25,5
-2.418659E-4,-1.393635E-4,0.9996045373,-0.999338395,-0.9994075673,0.6788100661,-0.9999826509,-0.7903349139,-0.456029661,-0.322748198,-0.25,2
-2.418659E-4,-1.393635E-4,0.9996045373,-0.999338395,-0.9994075673,0.6788100661,-0.9999826509,-0.7903349139,-0.456029661,-0.322748198,-0.25,2
-2.418659E-4,-1.393635E-4,0.9996045373,-0.999338395,-0.9994075673,0.6788100661,-0.9999826509,-0.7903349139,-0.456029661,-0.322748198,-0.25,2
-2.418659E-4,-1.393635E-4,0.9996045373,-0.999338395,-0.9994075673,0.6788100661,-0.9999826509,-0.7903349139,-0.456029661,-0.322748198,-0.25,2
-2.418659E-4,-1.393635E-4,0.9996045373,-0.999338395,-0.9994075673,0.6788100661,-0.9999826509,-0.7903349139,-0.456029661,-0.322748198,-0.25,2
-2.418659E-4,-1.393635E-4,0.9996045373,-0.999338395,-0.9994075673,0.6788100661,-0.9999826509,-0.7903349139,-0.456029661,-0.322748198,-0.25,2
-2.418659E-4,-1.393635E-4,0.9996045373,-0.999338395,-0.9994075673,0.6788100661,-0.9999826509,-0.7903349139,-0.456029661,-0.322748198,-0.25,2
0.0514412581,0.8484695463,-0.3292657862,0.0676219172,0.9072544445,-0.1025859536,-0.793027866,0.0480569042,-0.0297674084,0.8808132587,-0.25,4
0.0223605012,0.9001148412,-0.3288607521,0.0380364428,0.8709136085,-0.0122080048,-0.8033251278,0.019222737,-0.013901548,0.9278280228,-0.25,4
0.0223605012,0.9001148412,-0.3288607521,0.0380364428,0.8709136085,-0.0122080048,-0.8033251278,0.019222737,-0.013901548,0.9278280228,-0.25,4
0.0215657472,0.8925711377,-0.3163598714,-0.1121102016,0.6544346014,-0.0044817509,-0.8419576152,0.0110636936,-0.0177236118,0.9169069533,-0.25,4
0.0223605012,0.9001148412,-0.3288607521,0.0380364428,0.8709136085,-0.0122080048,-0.8033251278,0.019222737,-0.013901548,0.9278280228,-0.25,4
0.0150035051,0.7460453272,-0.0934462114,-0.5106364463,-0.4683718974,-0.0264034359,-0.9621445505,-0.1273867509,-0.0903212036,0.7112027261,-0.25,4
0.0223605012,0.9001148412,-0.3288607521,0.0380364428,0.8709136085,-0.0122080048,-0.8033251278,0.019222737,-0.013901548,0.9278280228,-0.25,4
-1.362784E-4,-7.69042E-5,0.9997746936,-0.998333146,-0.9996659802,0.6587262428,-0.9999898798,-0.7904357748,-0.4562059435,-0.3227460984,-0.25,2
-1.362784E-4,-7.69042E-5,0.9997746936,-0.998333146,-0.9996659802,0.6587262428,-0.9999898798,-0.7904357748,-0.4562059435,-0.3227460984,-0.25,2
-1.362784E-4,-7.69042E-5,0.9997746936,-0.998333146,-0.9996659802,0.6587262428,-0.9999898798,-0.7904357748,-0.4562059435,-0.3227460984,-0.25,2
-1.362784E-4,-7.69042E-5,0.9997746936,-0.998333146,-0.9996659802,0.6587262428,-0.9999898798,-0.7904357748,-0.4562059435,-0.3227460984,-0.25,2
-1.362784E-4,-7.69042E-5,0.9997746936,-0.998333146,-0.9996659802,0.6587262428,-0.9999898798,-0.7904357748,-0.4562059435,-0.3227460984,-0.25,2
-1.362784E-4,-7.69042E-5,0.9997746936,-0.998333146,-0.9996659802,0.6587262428,-0.9999898798,-0.7904357748,-0.4562059435,-0.3227460984,-0.25,2
-1.362784E-4,-7.69042E-5,0.9997746936,-0.998333146,-0.9996659802,0.6587262428,-0.9999898798,-0.7904357748,-0.4562059435,-0.3227460984,-0.25,2
-1.362784E-4,-7.69042E-5,0.9997746936,-0.998333146,-0.9996659802,0.6587262428,-0.9999898798,-0.7904357748,-0.4562059435,-0.3227460984,-0.25,2
0.4453151568,-0.2902721048,-0.3209914694,-0.2017251684,0.9461030877,-0.3986779754,-0.909981642,0.5504868312,-0.1800537608,-0.1613814148,-0.25,3
-0.7901888776,-0.456388542,-0.2908753915,-0.5965479404,0.9355552523,0.5973617303,-0.9525241052,-0.0250268818,0.8690087458,-0.3227442035,-0.25,5
-0.7901888776,-0.456388542,-0.2908753915,-0.5965479404,0.9355552523,0.5973617303,-0.9525241052,-0.0250268818,0.8690087458,-0.3227442035,-0.25,5
0.0214448245,0.8958216373,-0.3205971313,-0.0757030922,0.7176795013,-0.0030972574,-0.831985332,0.013446458,-0.0162127265,0.9212418096,-0.25,4
0.0215657472,0.8925711377,-0.3163598714,-0.1121102016,0.6544346014,-0.0044817509,-0.8419576152,0.0110636936,-0.0177236118,0.9169069533,-0.25,4
-1.362784E-4,-7.69042E-5,0.9997746936,-0.998333146,-0.9996659802,0.6587262428,-0.9999898798,-0.7904357748,-0.4562059435,-0.3227460984,-0.25,2
0.0246115732,0.8971365047,-0.3303168202,0.0730261259,0.9060788469,-0.031649334,-0.7959238312,0.0222961258,-0.0146439012,0.92557913,-0.25,4
-1.362784E-4,-7.69042E-5,0.9997746936,-0.998333146,-0.9996659802,0.6587262428,-0.9999898798,-0.7904357748,-0.4562059435,-0.3227460984,-0.25,2
-1.362784E-4,-7.69042E-5,0.9997746936,-0.998333146,-0.9996659802,0.6587262428,-0.9999898798,-0.7904357748,-0.4562059435,-0.3227460984,-0.25,2
-2.988175E-4,-1.702805E-4,0.9995083179,-0.9975863485,-0.9992676225,0.6638623849,-0.9999780863,-0.7902777758,-0.4559329985,-0.3227453666,-0.25,2
-2.988175E-4,-1.702805E-4,0.9995083179,-0.9975863485,-0.9992676225,0.6638623849,-0.9999780863,-0.7902777758,-0.4559329985,-0.3227453666,-0.25,2
-2.120188E-4,-1.208826E-4,0.9996513008,-0.9982570216,-0.999480433,0.6645965785,-0.999984399,-0.7903625996,-0.4560790154,-0.3227464202,-0.25,2
-2.120188E-4,-1.208826E-4,0.9996513008,-0.9982570216,-0.999480433,0.6645965785,-0.999984399,-0.7903625996,-0.4560790154,-0.3227464202,-0.25,2
-2.120188E-4,-1.208826E-4,0.9996513008,-0.9982570216,-0.999480433,0.6645965785,-0.999984399,-0.7903625996,-0.4560790154,-0.3227464202,-0.25,2
-0.7682084211,-0.4709356591,-0.3331157611,-0.5736911921,0.9964933608,-0.6227980707,-0.9463892936,0.0230743481,0.8722051063,-0.3223908231,-0.25,5
-0.7682084211,-0.4709356591,-0.3331157611,-0.5736911921,0.9964933608,-0.6227980707,-0.9463892936,0.0230743481,0.8722051063,-0.3223908231,-0.25,5
4.091E-6,3.604908E-4,0.9994782357,-0.9984602011,-0.9999867285,-0.0659670888,-0.9999993726,-0.7902557038,-0.4562589172,-0.3222511319,-0.25,2
4.091E-6,3.604908E-4,0.9994782357,-0.9984602011,-0.9999867285,-0.0659670888,-0.9999993726,-0.7902557038,-0.4562589172,-0.3222511319,-0.25,2
4.091E-6,3.604908E-4,0.9994782357,-0.9984602011,-0.9999867285,-0.0659670888,-0.9999993726,-0.7902557038,-0.4562589172,-0.3222511319,-0.25,2
0.021392827,0.8981578289,-0.3237268485,-0.0421596274,0.7697254535,-0.0026386725,-0.8230890694,0.0152425581,-0.0151176127,0.9243845629,-0.25,4
0.4453151568,-0.2902721048,-0.3209914694,-0.2017251684,0.9461030877,-0.3986779754,-0.909981642,0.5504868312,-0.1800537608,-0.1613814148,-0.25,3
0.0214448245,0.8958216373,-0.3205971313,-0.0757030922,0.7176795013,-0.0030972574,-0.831985332,0.013446458,-0.0162127265,0.9212418096,-0.25,4
0.0214448245,0.8958216373,-0.3205971313,-0.0757030922,0.7176795013,-0.0030972574,-0.831985332,0.013446458,-0.0162127265,0.9212418096,-0.25,4
-8.802499E-4,-5.081818E-4,0.9985623822,-0.9993927978,-0.9978441745,0.69603689,-0.9999401345,-0.7897169864,-0.4549591654,-0.3227485274,-0.25,2
0.0223605012,0.9001148412,-0.3288607521,0.0380364428,0.8709136085,-0.0122080048,-0.8033251278,0.019222737,-0.013901548,0.9278280228,-0.25,4
-8.802499E-4,-5.081818E-4,0.9985623822,-0.9993927978,-0.9978441745,0.69603689,-0.9999401345,-0.7897169864,-0.4549591654,-0.3227485274,-0.25,2
-8.802499E-4,-5.081818E-4,0.9985623822,-0.9993927978,-0.9978441745,0.69603689,-0.9999401345,-0.7897169864,-0.4549591654,-0.3227485274,-0.25,2
0.0150035051,0.7460453272,-0.0934462114,-0.5106364463,-0.4683718974,-0.0264034359,-0.9621445505,-0.1273867509,-0.0903212036,0.7112027261,-0.25,4
-0.0011530859,-6.65721E-4,0.9981168137,-0.9992710453,-0.9971759685,0.6981923126,-0.9999218256,-0.7894527862,-0.4545015895,-0.3227485337,-0.25,2
-0.0011530859,-6.65721E-4,0.9981168137,-0.9992710453,-0.9971759685,0.6981923126,-0.9999218256,-0.7894527862,-0.4545015895,-0.3227485337,-0.25,2
-0.0011530859,-6.65721E-4,0.9981168137,-0.9992710453,-0.9971759685,0.6981923126,-0.9999218256,-0.7894527862,-0.4545015895,-0.3227485337,-0.25,2
-0.0011530859,-6.65721E-4,0.9981168137,-0.9992710453,-0.9971759685,0.6981923126,-0.9999218256,-0.7894527862,-0.4545015895,-0.3227485337,-0.25,2
-0.0011530859,-6.65721E-4,0.9981168137,-0.9992710453,-0.9971759685,0.6981923126,-0.9999218256,-0.7894527862,-0.4545015895,-0.3227485337,-0.25,2
-0.0011530859,-6.65721E-4,0.9981168137,-0.9992710453,-0.9971759685,0.6981923126,-0.9999218256,-0.7894527862,-0.4545015895,-0.3227485337,-0.25,2
-0.0011530859,-6.65721E-4,0.9981168137,-0.9992710453,-0.9971759685,0.6981923126,-0.9999218256,-0.7894527862,-0.4545015895,-0.3227485337,-0.25,2
-1.29162E-5,3.671973E-4,0.9994339879,-0.9859163948,-0.9999475705,0.2757846584,-0.9999985793,-0.790230831,-0.4562255423,-0.3222307288,-0.25,2
-0.0053330837,-0.0030796006,0.9912891813,-0.9971642844,-0.986937675,0.7054724757,-0.999640495,-0.7854040017,-0.447490643,-0.3227484854,-0.25,2
0.0644303072,0.8247088642,-0.3286876921,0.0607497162,0.9051095712,-0.1280609732,-0.79483869,0.0605294896,-0.0370885563,0.8589362436,-0.25,4
0.4734252451,-0.2492635589,-0.3201765435,-0.1815439584,0.9399564221,-0.3889380732,-0.9061494634,0.5519890767,-0.2106144731,-0.1242089215,-0.25,3
-0.8143067354,-0.4706971615,-0.3313470028,-0.5841509604,0.9955908134,0.2220415889,-0.9534523927,-7.078906E-4,0.9100139066,-0.3227439699,-0.25,5
-0.8143067354,-0.4706971615,-0.3313470028,-0.5841509604,0.9955908134,0.2220415889,-0.9534523927,-7.078906E-4,0.9100139066,-0.3227439699,-0.25,5
0.4734252451,-0.2492635589,-0.3201765435,-0.1815439584,0.9399564221,-0.3889380732,-0.9061494634,0.5519890767,-0.2106144731,-0.1242089215,-0.25,3
0.4882911179,-0.2012033976,-0.3194957225,-0.1629078764,0.933598007,-0.3806543486,-0.9018242667,0.5452145267,-0.2311463125,-0.0805559315,-0.25,3
0.4734252451,-0.2492635589,-0.3201765435,-0.1815439584,0.9399564221,-0.3889380732,-0.9061494634,0.5519890767,-0.2106144731,-0.1242089215,-0.25,3
-0.7811570683,-0.4710998997,-0.333178495,-0.576542971,0.99666933,-0.6174276933,-0.9460843733,0.0169011134,0.8831180152,-0.3225205063,-0.25,5
-0.7811570683,-0.4710998997,-0.333178495,-0.576542971,0.99666933,-0.6174276933,-0.9460843733,0.0169011134,0.8831180152,-0.3225205063,-0.25,5
-0.8106454868,-0.4710898141,-0.3325217152,-0.5826311595,0.9966346902,-0.1580664382,-0.954094706,0.0021030451,0.9075434007,-0.3227232742,-0.25,5
-0.8106454868,-0.4710898141,-0.3325217152,-0.5826311595,0.9966346902,-0.1580664382,-0.954094706,0.0021030451,0.9075434007,-0.3227232742,-0.25,5
-0.8023269972,-0.4634267017,-0.3107813564,-0.5904274403,0.9653329775,0.5514723435,-0.952220321,-0.0131989512,0.8894084349,-0.3227445123,-0.25,5
0.0644303072,0.8247088642,-0.3286876921,0.0607497162,0.9051095712,-0.1280609732,-0.79483869,0.0605294896,-0.0370885563,0.8589362436,-0.25,4
-0.811569788,-0.4696605063,-0.3284457932,-0.5841614055,0.9912652464,0.2514494145,-0.9534342732,-0.0019662332,0.906227402,-0.3227339989,-0.25,5
-0.811569788,-0.4696605063,-0.3284457932,-0.5841614055,0.9912652464,0.2514494145,-0.9534342732,-0.0019662332,0.906227402,-0.3227339989,-0.25,5
-0.0038413892,-0.0022181032,0.9937259412,-0.9979259563,-0.9905915445,0.7045729905,-0.9997405148,-0.7868490619,-0.449992714,-0.3227485103,-0.25,2
0.4734252451,-0.2492635589,-0.3201765435,-0.1815439584,0.9399564221,-0.3889380732,-0.9061494634,0.5519890767,-0.2106144731,-0.1242089215,-0.25,3
0.4882911179,-0.2012033976,-0.3194957225,-0.1629078764,0.933598007,-0.3806543486,-0.9018242667,0.5452145267,-0.2311463125,-0.0805559315,-0.25,3
0.0216832165,0.8883134094,-0.3107021611,-0.1508406919,0.5793435712,-0.006269905,-0.8528886565,0.0078378217,-0.0197174045,0.9111941787,-0.25,4
-0.8023269972,-0.4634267017,-0.3107813564,-0.5904274403,0.9653329775,0.5514723435,-0.952220321,-0.0131989512,0.8894084349,-0.3227445123,-0.25,5
-0.8023269972,-0.4634267017,-0.3107813564,-0.5904274403,0.9653329775,0.5514723435,-0.952220321,-0.0131989512,0.8894084349,-0.3227445123,-0.25,5
0.0215657472,0.8925711377,-0.3163598714,-0.1121102016,0.6544346014,-0.0044817509,-0.8419576152,0.0110636936,-0.0177236118,0.9169069533,-0.25,4
0.0223605012,0.9001148412,-0.3288607521,0.0380364428,0.8709136085,-0.0122080048,-0.8033251278,0.019222737,-0.013901548,0.9278280228,-0.25,4
0.0811680699,0.7939654917,-0.327966616,0.0519903058,0.9024402531,-0.1551707507,-0.797883538,0.0766555973,-0.0464915312,0.8306387863,-0.25,4
0.4734252451,-0.2492635589,-0.3201765435,-0.1815439584,0.9399564221,-0.3889380732,-0.9061494634,0.5519890767,-0.2106144731,-0.1242089215,-0.25,3
-0.8133633544,-0.4713720445,-0.3332683989,-0.5832394273,0.9974177912,-0.3587733319,-0.9487635315,0.0014564542,0.9102087597,-0.322739923,-0.25,5
-0.8133633544,-0.4713720445,-0.3332683989,-0.5832394273,0.9974177912,-0.3587733319,-0.9487635315,0.0014564542,0.9102087597,-0.322739923,-0.25,5
-0.8119114505,-0.4690805655,-0.3267728128,-0.5855477623,0.9890733497,0.4129464683,-0.9523896842,-0.0036163454,0.9056566995,-0.3227445399,-0.25,5
-0.8119114505,-0.4690805655,-0.3267728128,-0.5855477623,0.9890733497,0.4129464683,-0.9523896842,-0.0036163454,0.9056566995,-0.3227445399,-0.25,5
0.0246115732,0.8971365047,-0.3303168202,0.0730261259,0.9060788469,-0.031649334,-0.7959238312,0.0222961258,-0.0146439012,0.92557913,-0.25,4
-0.8105524386,-0.4682564941,-0.3244418,-0.5862556057,0.9856494243,0.4534852652,-0.9522581189,-0.0050315789,0.9033201925,-0.3227446002,-0.25,5
-0.8105524386,-0.4682564941,-0.3244418,-0.5862556057,0.9856494243,0.4534852652,-0.9522581189,-0.0050315789,0.9033201925,-0.3227446002,-0.25,5
-0.7972278703,-0.4604657695,-0.3024069757,-0.5929982697,0.952815106,0.5762067056,-0.9523296462,-0.0181784819,0.8808325043,-0.3227443831,-0.25,5
-0.7972278703,-0.4604657695,-0.3024069757,-0.5929982697,0.952815106,0.5762067056,-0.9523296462,-0.0181784819,0.8808325043,-0.3227443831,-0.25,5
0.0223605012,0.9001148412,-0.3288607521,0.0380364428,0.8709136085,-0.0122080048,-0.8033251278,0.019222737,-0.013901548,0.9278280228,-0.25,4
0.0137164136,0.7157125175,-0.0473110235,-0.5362859648,-0.5500312192,-0.0325569283,-0.9688035904,-0.1560046519,-0.1054047444,0.6686227181,-0.25,4
-0.7903285856,-0.4712019619,-0.3332212204,-0.5785041187,0.9967943994,-0.6097093041,-0.9457090711,0.0125232762,0.8908445379,-0.3225998863,-0.25,5
-0.7903285856,-0.4712019619,-0.3332212204,-0.5785041187,0.9967943994,-0.6097093041,-0.9457090711,0.0125232762,0.8908445379,-0.3225998863,-0.25,5
-0.7901888776,-0.456388542,-0.2908753915,-0.5965479404,0.9355552523,0.5973617303,-0.9525241052,-0.0250268818,0.8690087458,-0.3227442035,-0.25,5
-0.7901888776,-0.456388542,-0.2908753915,-0.5965479404,0.9355552523,0.5973617303,-0.9525241052,-0.0250268818,0.8690087458,-0.3227442035,-0.25,5
0.0137164136,0.7157125175,-0.0473110235,-0.5362859648,-0.5500312192,-0.0325569283,-0.9688035904,-0.1560046519,-0.1054047444,0.6686227181,-0.25,4
0.0214448245,0.8958216373,-0.3205971313,-0.0757030922,0.7176795013,-0.0030972574,-0.831985332,0.013446458,-0.0162127265,0.9212418096,-0.25,4
-0.8129332893,-0.4698883735,-0.3290640481,-0.5846588814,0.992330791,0.3160825204,-0.9529229344,-0.0020738712,0.9076896979,-0.3227424713,-0.25,5
-0.8129332893,-0.4698883735,-0.3290640481,-0.5846588814,0.992330791,0.3160825204,-0.9529229344,-0.0020738712,0.9076896979,-0.3227424713,-0.25,5
0.0246115732,0.8971365047,-0.3303168202,0.0730261259,0.9060788469,-0.031649334,-0.7959238312,0.0222961258,-0.0146439012,0.92557913,-0.25,4
-0.810102102,-0.4712632149,-0.3330100014,-0.582573462,0.9970888242,-0.3164535058,-0.9519872937,0.0028006013,0.9073386123,-0.3227239731,-0.25,5
-0.810102102,-0.4712632149,-0.3330100014,-0.582573462,0.9970888242,-0.3164535058,-0.9519872937,0.0028006013,0.9073386123,-0.3227239731,-0.25,5
0.0886005447,0.762342833,-0.3038681604,-0.080758329,0.7004081575,-0.14324646,-0.83691508,0.0700411285,-0.058620156,0.7939936373,-0.25,4
-0.7682084211,-0.4709356591,-0.3331157611,-0.5736911921,0.9964933608,-0.6227980707,-0.9463892936,0.0230743481,0.8722051063,-0.3223908231,-0.25,5
-0.7682084211,-0.4709356591,-0.3331157611,-0.5736911921,0.9964933608,-0.6227980707,-0.9463892936,0.0230743481,0.8722051063,-0.3223908231,-0.25,5
-0.8105524386,-0.4682564941,-0.3244418,-0.5862556057,0.9856494243,0.4534852652,-0.9522581189,-0.0050315789,0.9033201925,-0.3227446002,-0.25,5
-0.8105524386,-0.4682564941,-0.3244418,-0.5862556057,0.9856494243,0.4534852652,-0.9522581189,-0.0050315789,0.9033201925,-0.3227446002,-0.25,5
-0.8139424788,-0.4713456375,-0.3331886437,-0.5834034746,0.9975201959,-0.2376651365,-0.952057388,0.0011056538,0.9106537057,-0.3227415578,-0.25,5
0.0223605012,0.9001148412,-0.3288607521,0.0380364428,0.8709136085,-0.0122080048,-0.8033251278,0.019222737,-0.013901548,0.9278280228,-0.25,4
0.0137164136,0.7157125175,-0.0473110235,-0.5362859648,-0.5500312192,-0.0325569283,-0.9688035904,-0.1560046519,-0.1054047444,0.6686227181,-0.25,4
-0.8023269972,-0.4634267017,-0.3107813564,-0.5904274403,0.9653329775,0.5514723435,-0.952220321,-0.0131989512,0.8894084349,-0.3227445123,-0.25,5
-0.8023269972,-0.4634267017,-0.3107813564,-0.5904274403,0.9653329775,0.5514723435,-0.952220321,-0.0131989512,0.8894084349,-0.3227445123,-0.25,5
-0.7811570683,-0.4710998997,-0.333178495,-0.576542971,0.99666933,-0.6174276933,-0.9460843733,0.0169011134,0.8831180152,-0.3225205063,-0.25,5
-0.7811570683,-0.4710998997,-0.333178495,-0.576542971,0.99666933,-0.6174276933,-0.9460843733,0.0169011134,0.8831180152,-0.3225205063,-0.25,5
0.0215657472,0.8925711377,-0.3163598714,-0.1121102016,0.6544346014,-0.0044817509,-0.8419576152,0.0110636936,-0.0177236118,0.9169069533,-0.25,4
-0.8105340492,-0.4713706859,-0.3332993484,-0.5825732144,0.9971817979,-0.5078691967,-0.9443017953,0.0028502737,0.9078502223,-0.3227286939,-0.25,5
-0.8105340492,-0.4713706859,-0.3332993484,-0.5825732144,0.9971817979,-0.5078691967,-0.9443017953,0.0028502737,0.9078502223,-0.3227286939,-0.25,5
-0.7682084211,-0.4709356591,-0.3331157611,-0.5736911921,0.9964933608,-0.6227980707,-0.9463892936,0.0230743481,0.8722051063,-0.3223908231,-0.25,5
-0.7682084211,-0.4709356591,-0.3331157611,-0.5736911921,0.9964933608,-0.6227980707,-0.9463892936,0.0230743481,0.8722051063,-0.3223908231,-0.25,5
0.102267282,0.7550118187,-0.3271017423,0.0415070614,0.8995387807,-0.1829533426,-0.8022388148,0.0970743493,-0.0582923955,0.7947999739,-0.25,4
0.102267282,0.7550118187,-0.3271017423,0.0415070614,0.8995387807,-0.1829533426,-0.8022388148,0.0970743493,-0.0582923955,0.7947999739,-0.25,4
0.0137164136,0.7157125175,-0.0473110235,-0.5362859648,-0.5500312192,-0.0325569283,-0.9688035904,-0.1560046519,-0.1054047444,0.6686227181,-0.25,4
0.0137164136,0.7157125175,-0.0473110235,-0.5362859648,-0.5500312192,-0.0325569283,-0.9688035904,-0.1560046519,-0.1054047444,0.6686227181,-0.25,4
0.0246115732,0.8971365047,-0.3303168202,0.0730261259,0.9060788469,-0.031649334,-0.7959238312,0.0222961258,-0.0146439012,0.92557913,-0.25,4
0.0137164136,0.7157125175,-0.0473110235,-0.5362859648,-0.5500312192,-0.0325569283,-0.9688035904,-0.1560046519,-0.1054047444,0.6686227181,-0.25,4
0.0137164136,0.7157125175,-0.0473110235,-0.5362859648,-0.5500312192,-0.0325569283,-0.9688035904,-0.1560046519,-0.1054047444,0.6686227181,-0.25,4
0.0246115732,0.8971365047,-0.3303168202,0.0730261259,0.9060788469,-0.031649334,-0.7959238312,0.0222961258,-0.0146439012,0.92557913,-0.25,4
-0.7811570683,-0.4710998997,-0.333178495,-0.576542971,0.99666933,-0.6174276933,-0.9460843733,0.0169011134,0.8831180152,-0.3225205063,-0.25,5
-0.7811570683,-0.4710998997,-0.333178495,-0.576542971,0.99666933,-0.6174276933,-0.9460843733,0.0169011134,0.8831180152,-0.3225205063,-0.25,5
0.0112369575,0.0768954193,0.814714344,-0.2642840867,-0.9012875488,-0.036724077,-0.9949066587,-0.6601410969,-0.3936959403,-0.192752331,-0.25,2
0.0811680699,0.7939654917,-0.327966616,0.0519903058,0.9024402531,-0.1551707507,-0.797883538,0.0766555973,-0.0464915312,0.8306387863,-0.25,4
0.4734252451,-0.2492635589,-0.3201765435,-0.1815439584,0.9399564221,-0.3889380732,-0.9061494634,0.5519890767,-0.2106144731,-0.1242089215,-0.25,3
0.4734252451,-0.2492635589,-0.3201765435,-0.1815439584,0.9399564221,-0.3889380732,-0.9061494634,0.5519890767,-0.2106144731,-0.1242089215,-0.25,3
0.4734252451,-0.2492635589,-0.3201765435,-0.1815439584,0.9399564221,-0.3889380732,-0.9061494634,0.5519890767,-0.2106144731,-0.1242089215,-0.25,3
-0.7805419261,-0.4508085237,-0.275093414,-0.6014180583,0.9119147201,0.6153246457,-0.9528408375,-0.0343929828,0.8528156052,-0.3227439783,-0.25,5
-0.7805419261,-0.4508085237,-0.275093414,-0.6014180583,0.9119147201,0.6153246457,-0.9528408375,-0.0343929828,0.8528156052,-0.3227439783,-0.25,5
-0.0053330837,-0.0030796006,0.9912891813,-0.9971642844,-0.986937675,0.7054724757,-0.999640495,-0.7854040017,-0.447490643,-0.3227484854,-0.25,2
-3.485726E-4,-2.01122E-4,0.9994305193,-0.9994934903,-0.999146268,0.6855197762,-0.9999755476,-0.7902317377,-0.4558507905,-0.3227484115,-0.25,2
-3.485726E-4,-2.01122E-4,0.9994305193,-0.9994934903,-0.999146268,0.6855197762,-0.9999755476,-0.7902317377,-0.4558507905,-0.3227484115,-0.25,2
-3.485726E-4,-2.01122E-4,0.9994305193,-0.9994934903,-0.999146268,0.6855197762,-0.9999755476,-0.7902317377,-0.4558507905,-0.3227484115,-0.25,2
-3.485726E-4,-2.01122E-4,0.9994305193,-0.9994934903,-0.999146268,0.6855197762,-0.9999755476,-0.7902317377,-0.4558507905,-0.3227484115,-0.25,2
-3.485726E-4,-2.01122E-4,0.9994305193,-0.9994934903,-0.999146268,0.6855197762,-0.9999755476,-0.7902317377,-0.4558507905,-0.3227484115,-0.25,2
-3.485726E-4,-2.01122E-4,0.9994305193,-0.9994934903,-0.999146268,0.6855197762,-0.9999755476,-0.7902317377,-0.4558507905,-0.3227484115,-0.25,2
-3.485726E-4,-2.01122E-4,0.9994305193,-0.9994934903,-0.999146268,0.6855197762,-0.9999755476,-0.7902317377,-0.4558507905,-0.3227484115,-0.25,2
-0.8125592928,-0.4713717268,-0.3332762056,-0.5830743246,0.9973290614,-0.4130694169,-0.9474252627,0.0018518018,0.9095380454,-0.3227371134,-0.25,5
-0.8125592928,-0.4713717268,-0.3332762056,-0.5830743246,0.9973290614,-0.4130694169,-0.9474252627,0.0018518018,0.9095380454,-0.3227371134,-0.25,5
-0.8105524386,-0.4682564941,-0.3244418,-0.5862556057,0.9856494243,0.4534852652,-0.9522581189,-0.0050315789,0.9033201925,-0.3227446002,-0.25,5
-0.8105524386,-0.4682564941,-0.3244418,-0.5862556057,0.9856494243,0.4534852652,-0.9522581189,-0.0050315789,0.9033201925,-0.3227446002,-0.25,5
2.288479E-4,0.051062068,0.9271872465,-0.934718523,-0.9960073735,-0.219114129,-0.9998485544,-0.7471673705,-0.4316331422,-0.2526353195,-0.25,2
2.288479E-4,0.051062068,0.9271872465,-0.934718523,-0.9960073735,-0.219114129,-0.9998485544,-0.7471673705,-0.4316331422,-0.2526353195,-0.25,2
2.288479E-4,0.051062068,0.9271872465,-0.934718523,-0.9960073735,-0.219114129,-0.9998485544,-0.7471673705,-0.4316331422,-0.2526353195,-0.25,2
-0.7901888776,-0.456388542,-0.2908753915,-0.5965479404,0.9355552523,0.5973617303,-0.9525241052,-0.0250268818,0.8690087458,-0.3227442035,-0.25,5
-0.7901888776,-0.456388542,-0.2908753915,-0.5965479404,0.9355552523,0.5973617303,-0.9525241052,-0.0250268818,0.8690087458,-0.3227442035,-0.25,5
-1.550834E-4,-8.84439E-5,0.9997450088,-0.9987058314,-0.9996199944,0.6650367805,-0.9999885543,-0.7904181854,-0.4561747636,-0.322747052,-0.25,2
-1.550834E-4,-8.84439E-5,0.9997450088,-0.9987058314,-0.9996199944,0.6650367805,-0.9999885543,-0.7904181854,-0.4561747636,-0.322747052,-0.25,2
-1.550834E-4,-8.84439E-5,0.9997450088,-0.9987058314,-0.9996199944,0.6650367805,-0.9999885543,-0.7904181854,-0.4561747636,-0.322747052,-0.25,2
-1.550834E-4,-8.84439E-5,0.9997450088,-0.9987058314,-0.9996199944,0.6650367805,-0.9999885543,-0.7904181854,-0.4561747636,-0.322747052,-0.25,2
-1.550834E-4,-8.84439E-5,0.9997450088,-0.9987058314,-0.9996199944,0.6650367805,-0.9999885543,-0.7904181854,-0.4561747636,-0.322747052,-0.25,2
-1.550834E-4,-8.84439E-5,0.9997450088,-0.9987058314,-0.9996199944,0.6650367805,-0.9999885543,-0.7904181854,-0.4561747636,-0.322747052,-0.25,2
-1.550834E-4,-8.84439E-5,0.9997450088,-0.9987058314,-0.9996199944,0.6650367805,-0.9999885543,-0.7904181854,-0.4561747636,-0.322747052,-0.25,2
-1.550834E-4,-8.84439E-5,0.9997450088,-0.9987058314,-0.9996199944,0.6650367805,-0.9999885543,-0.7904181854,-0.4561747636,-0.322747052,-0.25,2
2.288479E-4,0.051062068,0.9271872465,-0.934718523,-0.9960073735,-0.219114129,-0.9998485544,-0.7471673705,-0.4316331422,-0.2526353195,-0.25,2
2.288479E-4,0.051062068,0.9271872465,-0.934718523,-0.9960073735,-0.219114129,-0.9998485544,-0.7471673705,-0.4316331422,-0.2526353195,-0.25,2
-0.7805419261,-0.4508085237,-0.275093414,-0.6014180583,0.9119147201,0.6153246457,-0.9528408375,-0.0343929828,0.8528156052,-0.3227439783,-0.25,5
-0.7805419261,-0.4508085237,-0.275093414,-0.6014180583,0.9119147201,0.6153246457,-0.9528408375,-0.0343929828,0.8528156052,-0.3227439783,-0.25,5
-0.8144831983,-0.4708765833,-0.3318551126,-0.5839883198,0.9962590622,0.1700685489,-0.9537647727,-3.414744E-4,0.9104227486,-0.3227437671,-0.25,5
-0.8144831983,-0.4708765833,-0.3318551126,-0.5839883198,0.9962590622,0.1700685489,-0.9537647727,-3.414744E-4,0.9104227486,-0.3227437671,-0.25,5
-0.8104609381,-0.4711654762,-0.3327351097,-0.5825997092,0.9968572047,-0.2136242898,-0.9535651061,0.0023822408,0.9074982627,-0.3227234711,-0.25,5
-0.8104609381,-0.4711654762,-0.3327351097,-0.5825997092,0.9968572047,-0.2136242898,-0.9535651061,0.0023822408,0.9074982627,-0.3227234711,-0.25,5
-0.8140088846,-0.470455067,-0.3306616898,-0.5843642268,0.9946546482,0.2728992088,-0.9531329154,-0.0011731492,0.9094122821,-0.3227441526,-0.25,5
-0.8140088846,-0.470455067,-0.3306616898,-0.5843642268,0.9946546482,0.2728992088,-0.9531329154,-0.0011731492,0.9094122821,-0.3227441526,-0.25,5
-1.09722E-5,2.768344E-4,0.9995693894,-0.9889290482,-0.9999574318,0.284776722,-0.9999988553,-0.790311677,-0.4562743921,-0.3223569191,-0.25,2
-0.7682084211,-0.4709356591,-0.3331157611,-0.5736911921,0.9964933608,-0.6227980707,-0.9463892936,0.0230743481,0.8722051063,-0.3223908231,-0.25,5
-0.7682084211,-0.4709356591,-0.3331157611,-0.5736911921,0.9964933608,-0.6227980707,-0.9463892936,0.0230743481,0.8722051063,-0.3223908231,-0.25,5
-1.778367E-4,-1.019941E-4,0.999708479,-0.9989867917,-0.9995643188,0.6703328741,-0.9999869808,-0.7903965341,-0.4561368242,-0.3227476317,-0.25,2
-1.778367E-4,-1.019941E-4,0.999708479,-0.9989867917,-0.9995643188,0.6703328741,-0.9999869808,-0.7903965341,-0.4561368242,-0.3227476317,-0.25,2
-1.778367E-4,-1.019941E-4,0.999708479,-0.9989867917,-0.9995643188,0.6703328741,-0.9999869808,-0.7903965341,-0.4561368242,-0.3227476317,-0.25,2
-1.778367E-4,-1.019941E-4,0.999708479,-0.9989867917,-0.9995643188,0.6703328741,-0.9999869808,-0.7903965341,-0.4561368242,-0.3227476317,-0.25,2
-1.778367E-4,-1.019941E-4,0.999708479,-0.9989867917,-0.9995643188,0.6703328741,-0.9999869808,-0.7903965341,-0.4561368242,-0.3227476317,-0.25,2
-1.778367E-4,-1.019941E-4,0.999708479,-0.9989867917,-0.9995643188,0.6703328741,-0.9999869808,-0.7903965341,-0.4561368242,-0.3227476317,-0.25,2
-1.778367E-4,-1.019941E-4,0.999708479,-0.9989867917,-0.9995643188,0.6703328741,-0.9999869808,-0.7903965341,-0.4561368242,-0.3227476317,-0.25,2
-1.778367E-4,-1.019941E-4,0.999708479,-0.9989867917,-0.9995643188,0.6703328741,-0.9999869808,-0.7903965341,-0.4561368242,-0.3227476317,-0.25,2
-1.778367E-4,-1.019941E-4,0.999708479,-0.9989867917,-0.9995643188,0.6703328741,-0.9999869808,-0.7903965341,-0.4561368242,-0.3227476317,-0.25,2
0.0215657472,0.8925711377,-0.3163598714,-0.1121102016,0.6544346014,-0.0044817509,-0.8419576152,0.0110636936,-0.0177236118,0.9169069533,-0.25,4
-0.7682084211,-0.4709356591,-0.3331157611,-0.5736911921,0.9964933608,-0.6227980707,-0.9463892936,0.0230743481,0.8722051063,-0.3223908231,-0.25,5
-0.7682084211,-0.4709356591,-0.3331157611,-0.5736911921,0.9964933608,-0.6227980707,-0.9463892936,0.0230743481,0.8722051063,-0.3223908231,-0.25,5
-0.002057344,-0.0011878616,0.9966399738,-0.998829674,-0.99496127,0.7018808281,-0.9998608417,-0.788577071,-0.4529850037,-0.3227485327,-0.25,2
-0.002057344,-0.0011878616,0.9966399738,-0.998829674,-0.99496127,0.7018808281,-0.9998608417,-0.788577071,-0.4529850037,-0.3227485327,-0.25,2
0.0223605012,0.9001148412,-0.3288607521,0.0380364428,0.8709136085,-0.0122080048,-0.8033251278,0.019222737,-0.013901548,0.9278280228,-0.25,4
-0.002057344,-0.0011878616,0.9966399738,-0.998829674,-0.99496127,0.7018808281,-0.9998608417,-0.788577071,-0.4529850037,-0.3227485327,-0.25,2
0.0214448245,0.8958216373,-0.3205971313,-0.0757030922,0.7176795013,-0.0030972574,-0.831985332,0.013446458,-0.0162127265,0.9212418096,-0.25,4
-0.002057344,-0.0011878616,0.9966399738,-0.998829674,-0.99496127,0.7018808281,-0.9998608417,-0.788577071,-0.4529850037,-0.3227485327,-0.25,2
-0.002057344,-0.0011878616,0.9966399738,-0.998829674,-0.99496127,0.7018808281,-0.9998608417,-0.788577071,-0.4529850037,-0.3227485327,-0.25,2
0.0215657472,0.8925711377,-0.3163598714,-0.1121102016,0.6544346014,-0.0044817509,-0.8419576152,0.0110636936,-0.0177236118,0.9169069533,-0.25,4
-0.002057344,-0.0011878616,0.9966399738,-0.998829674,-0.99496127,0.7018808281,-0.9998608417,-0.788577071,-0.4529850037,-0.3227485327,-0.25,2
-0.002057344,-0.0011878616,0.9966399738,-0.998829674,-0.99496127,0.7018808281,-0.9998608417,-0.788577071,-0.4529850037,-0.3227485327,-0.25,2
-0.002057344,-0.0011878616,0.9966399738,-0.998829674,-0.99496127,0.7018808281,-0.9998608417,-0.788577071,-0.4529850037,-0.3227485327,-0.25,2
0.034120992,0.8799936846,-0.3300256089,0.0750696302,0.9090033849,-0.0598402755,-0.7926657662,0.0314611944,-0.0199842997,0.9098359598,-0.25,4
-0.8139424788,-0.4713456375,-0.3331886437,-0.5834034746,0.9975201959,-0.2376651365,-0.952057388,0.0011056538,0.9106537057,-0.3227415578,-0.25,5
-0.8139424788,-0.4713456375,-0.3331886437,-0.5834034746,0.9975201959,-0.2376651365,-0.952057388,0.0011056538,0.9106537057,-0.3227415578,-0.25,5
0.4734252451,-0.2492635589,-0.3201765435,-0.1815439584,0.9399564221,-0.3889380732,-0.9061494634,0.5519890767,-0.2106144731,-0.1242089215,-0.25,3
-0.7811570683,-0.4710998997,-0.333178495,-0.576542971,0.99666933,-0.6174276933,-0.9460843733,0.0169011134,0.8831180152,-0.3225205063,-0.25,5
-0.7811570683,-0.4710998997,-0.333178495,-0.576542971,0.99666933,-0.6174276933,-0.9460843733,0.0169011134,0.8831180152,-0.3225205063,-0.25,5
-0.8105548265,-0.4697030292,-0.3285950353,-0.5835549093,0.9913561515,0.1889352775,-0.9538895322,-0.0013449954,0.9054513124,-0.3227246491,-0.25,5
-0.8105548265,-0.4697030292,-0.3285950353,-0.5835549093,0.9913561515,0.1889352775,-0.9538895322,-0.0013449954,0.9054513124,-0.3227246491,-0.25,5
-0.8105548265,-0.4697030292,-0.3285950353,-0.5835549093,0.9913561515,0.1889352775,-0.9538895322,-0.0013449954,0.9054513124,-0.3227246491,-0.25,5
-0.8105548265,-0.4697030292,-0.3285950353,-0.5835549093,0.9913561515,0.1889352775,-0.9538895322,-0.0013449954,0.9054513124,-0.3227246491,-0.25,5
-0.8144831983,-0.4708765833,-0.3318551126,-0.5839883198,0.9962590622,0.1700685489,-0.9537647727,-3.414744E-4,0.9104227486,-0.3227437671,-0.25,5
-0.8144831983,-0.4708765833,-0.3318551126,-0.5839883198,0.9962590622,0.1700685489,-0.9537647727,-3.414744E-4,0.9104227486,-0.3227437671,-0.25,5
-0.8144831983,-0.4708765833,-0.3318551126,-0.5839883198,0.9962590622,0.1700685489,-0.9537647727,-3.414744E-4,0.9104227486,-0.3227437671,-0.25,5
-0.8144831983,-0.4708765833,-0.3318551126,-0.5839883198,0.9962590622,0.1700685489,-0.9537647727,-3.414744E-4,0.9104227486,-0.3227437671,-0.25,5
0.4734252451,-0.2492635589,-0.3201765435,-0.1815439584,0.9399564221,-0.3889380732,-0.9061494634,0.5519890767,-0.2106144731,-0.1242089215,-0.25,3
0.0584436994,0.8320034229,-0.3238725112,0.0070162892,0.8411330396,-0.1038207034,-0.8077185585,0.0517856096,-0.0354436067,0.8640411413,-0.25,4
0.0584436994,0.8320034229,-0.3238725112,0.0070162892,0.8411330396,-0.1038207034,-0.8077185585,0.0517856096,-0.0354436067,0.8640411413,-0.25,4
0.4734252451,-0.2492635589,-0.3201765435,-0.1815439584,0.9399564221,-0.3889380732,-0.9061494634,0.5519890767,-0.2106144731,-0.1242089215,-0.25,3
-0.8046380992,-0.4713326082,-0.3332840246,-0.5814045281,0.9970161315,-0.574568038,-0.944466147,0.0056818806,0.9028931788,-0.3226988796,-0.25,5
-0.8046380992,-0.4713326082,-0.3332840246,-0.5814045281,0.9970161315,-0.574568038,-0.944466147,0.0056818806,0.9028931788,-0.3226988796,-0.25,5
0.102267282,0.7550118187,-0.3271017423,0.0415070614,0.8995387807,-0.1829533426,-0.8022388148,0.0970743493,-0.0582923955,0.7947999739,-0.25,4
0.0137164136,0.7157125175,-0.0473110235,-0.5362859648,-0.5500312192,-0.0325569283,-0.9688035904,-0.1560046519,-0.1054047444,0.6686227181,-0.25,4
-0.7811570683,-0.4710998997,-0.333178495,-0.576542971,0.99666933,-0.6174276933,-0.9460843733,0.0169011134,0.8831180152,-0.3225205063,-0.25,5
-0.7811570683,-0.4710998997,-0.333178495,-0.576542971,0.99666933,-0.6174276933,-0.9460843733,0.0169011134,0.8831180152,-0.3225205063,-0.25,5
-0.7811570683,-0.4710998997,-0.333178495,-0.576542971,0.99666933,-0.6174276933,-0.9460843733,0.0169011134,0.8831180152,-0.3225205063,-0.25,5
-0.7811570683,-0.4710998997,-0.333178495,-0.576542971,0.99666933,-0.6174276933,-0.9460843733,0.0169011134,0.8831180152,-0.3225205063,-0.25,5
-0.7682084211,-0.4709356591,-0.3331157611,-0.5736911921,0.9964933608,-0.6227980707,-0.9463892936,0.0230743481,0.8722051063,-0.3223908231,-0.25,5
-0.7682084211,-0.4709356591,-0.3331157611,-0.5736911921,0.9964933608,-0.6227980707,-0.9463892936,0.0230743481,0.8722051063,-0.3223908231,-0.25,5
0.0216832165,0.8883134094,-0.3107021611,-0.1508406919,0.5793435712,-0.006269905,-0.8528886565,0.0078378217,-0.0197174045,0.9111941787,-0.25,4
-0.8144831983,-0.4708765833,-0.3318551126,-0.5839883198,0.9962590622,0.1700685489,-0.9537647727,-3.414744E-4,0.9104227486,-0.3227437671,-0.25,5
-0.8144831983,-0.4708765833,-0.3318551126,-0.5839883198,0.9962590622,0.1700685489,-0.9537647727,-3.414744E-4,0.9104227486,-0.3227437671,-0.25,5
0.023281972,0.8990806887,-0.3297129791,0.0574170838,0.8909011656,-0.0204725913,-0.7990588656,0.0206316411,-0.0141183525,0.9271590301,-0.25,4
0.0137164136,0.7157125175,-0.0473110235,-0.5362859648,-0.5500312192,-0.0325569283,-0.9688035904,-0.1560046519,-0.1054047444,0.6686227181,-0.25,4
0.0246115732,0.8971365047,-0.3303168202,0.0730261259,0.9060788469,-0.031649334,-0.7959238312,0.0222961258,-0.0146439012,0.92557913,-0.25,4
0.4734252451,-0.2492635589,-0.3201765435,-0.1815439584,0.9399564221,-0.3889380732,-0.9061494634,0.5519890767,-0.2106144731,-0.1242089215,-0.25,3
2.288479E-4,0.051062068,0.9271872465,-0.934718523,-0.9960073735,-0.219114129,-0.9998485544,-0.7471673705,-0.4316331422,-0.2526353195,-0.25,2
-0.7805419261,-0.4508085237,-0.275093414,-0.6014180583,0.9119147201,0.6153246457,-0.9528408375,-0.0343929828,0.8528156052,-0.3227439783,-0.25,5
-0.7805419261,-0.4508085237,-0.275093414,-0.6014180583,0.9119147201,0.6153246457,-0.9528408375,-0.0343929828,0.8528156052,-0.3227439783,-0.25,5
2.288479E-4,0.051062068,0.9271872465,-0.934718523,-0.9960073735,-0.219114129,-0.9998485544,-0.7471673705,-0.4316331422,-0.2526353195,-0.25,2
-1.202984E-4,-6.65591E-5,0.9997991253,-0.9978517865,-0.9997050187,0.6511047886,-0.9999910298,-0.790450245,-0.456232164,-0.3227445401,-0.25,2
-1.202984E-4,-6.65591E-5,0.9997991253,-0.9978517865,-0.9997050187,0.6511047886,-0.9999910298,-0.790450245,-0.456232164,-0.3227445401,-0.25,2
-1.202984E-4,-6.65591E-5,0.9997991253,-0.9978517865,-0.9997050187,0.6511047886,-0.9999910298,-0.790450245,-0.456232164,-0.3227445401,-0.25,2
0.0223605012,0.9001148412,-0.3288607521,0.0380364428,0.8709136085,-0.0122080048,-0.8033251278,0.019222737,-0.013901548,0.9278280228,-0.25,4
-1.202984E-4,-6.65591E-5,0.9997991253,-0.9978517865,-0.9997050187,0.6511047886,-0.9999910298,-0.790450245,-0.456232164,-0.3227445401,-0.25,2
-1.202984E-4,-6.65591E-5,0.9997991253,-0.9978517865,-0.9997050187,0.6511047886,-0.9999910298,-0.790450245,-0.456232164,-0.3227445401,-0.25,2
0.0223605012,0.9001148412,-0.3288607521,0.0380364428,0.8709136085,-0.0122080048,-0.8033251278,0.019222737,-0.013901548,0.9278280228,-0.25,4
-1.202984E-4,-6.65591E-5,0.9997991253,-0.9978517865,-0.9997050187,0.6511047886,-0.9999910298,-0.790450245,-0.456232164,-0.3227445401,-0.25,2
-1.202984E-4,-6.65591E-5,0.9997991253,-0.9978517865,-0.9997050187,0.6511047886,-0.9999910298,-0.790450245,-0.456232164,-0.3227445401,-0.25,2
-1.202984E-4,-6.65591E-5,0.9997991253,-0.9978517865,-0.9997050187,0.6511047886,-0.9999910298,-0.790450245,-0.456232164,-0.3227445401,-0.25,2
-1.202984E-4,-6.65591E-5,0.9997991253,-0.9978517865,-0.9997050187,0.6511047886,-0.9999910298,-0.790450245,-0.456232164,-0.3227445401,-0.25,2
-1.202984E-4,-6.65591E-5,0.9997991253,-0.9978517865,-0.9997050187,0.6511047886,-0.9999910298,-0.790450245,-0.456232164,-0.3227445401,-0.25,2
-1.202984E-4,-6.65591E-5,0.9997991253,-0.9978517865,-0.9997050187,0.6511047886,-0.9999910298,-0.790450245,-0.456232164,-0.3227445401,-0.25,2
-1.202984E-4,-6.65591E-5,0.9997991253,-0.9978517865,-0.9997050187,0.6511047886,-0.9999910298,-0.790450245,-0.456232164,-0.3227445401,-0.25,2
-1.202984E-4,-6.65591E-5,0.9997991253,-0.9978517865,-0.9997050187,0.6511047886,-0.9999910298,-0.790450245,-0.456232164,-0.3227445401,-0.25,2
-1.202984E-4,-6.65591E-5,0.9997991253,-0.9978517865,-0.9997050187,0.6511047886,-0.9999910298,-0.790450245,-0.456232164,-0.3227445401,-0.25,2
-1.202984E-4,-6.65591E-5,0.9997991253,-0.9978517865,-0.9997050187,0.6511047886,-0.9999910298,-0.790450245,-0.456232164,-0.3227445401,-0.25,2
-1.202984E-4,-6.65591E-5,0.9997991253,-0.9978517865,-0.9997050187,0.6511047886,-0.9999910298,-0.790450245,-0.456232164,-0.3227445401,-0.25,2
-1.202984E-4,-6.65591E-5,0.9997991253,-0.9978517865,-0.9997050187,0.6511047886,-0.9999910298,-0.790450245,-0.456232164,-0.3227445401,-0.25,2
-0.7903285856,-0.4712019619,-0.3332212204,-0.5785041187,0.9967943994,-0.6097093041,-0.9457090711,0.0125232762,0.8908445379,-0.3225998863,-0.25,5
-0.7903285856,-0.4712019619,-0.3332212204,-0.5785041187,0.9967943994,-0.6097093041,-0.9457090711,0.0125232762,0.8908445379,-0.3225998863,-0.25,5
-0.7682084211,-0.4709356591,-0.3331157611,-0.5736911921,0.9964933608,-0.6227980707,-0.9463892936,0.0230743481,0.8722051063,-0.3223908231,-0.25,5
-0.7682084211,-0.4709356591,-0.3331157611,-0.5736911921,0.9964933608,-0.6227980707,-0.9463892936,0.0230743481,0.8722051063,-0.3223908231,-0.25,5
-0.7682084211,-0.4709356591,-0.3331157611,-0.5736911921,0.9964933608,-0.6227980707,-0.9463892936,0.0230743481,0.8722051063,-0.3223908231,-0.25,5
-0.7682084211,-0.4709356591,-0.3331157611,-0.5736911921,0.9964933608,-0.6227980707,-0.9463892936,0.0230743481,0.8722051063,-0.3223908231,-0.25,5
-0.7805419261,-0.4508085237,-0.275093414,-0.6014180583,0.9119147201,0.6153246457,-0.9528408375,-0.0343929828,0.8528156052,-0.3227439783,-0.25,5
-0.7805419261,-0.4508085237,-0.275093414,-0.6014180583,0.9119147201,0.6153246457,-0.9528408375,-0.0343929828,0.8528156052,-0.3227439783,-0.25,5
-0.7903285856,-0.4712019619,-0.3332212204,-0.5785041187,0.9967943994,-0.6097093041,-0.9457090711,0.0125232762,0.8908445379,-0.3225998863,-0.25,5
-0.7903285856,-0.4712019619,-0.3332212204,-0.5785041187,0.9967943994,-0.6097093041,-0.9457090711,0.0125232762,0.8908445379,-0.3225998863,-0.25,5
-1.09722E-5,2.768344E-4,0.9995693894,-0.9889290482,-0.9999574318,0.284776722,-0.9999988553,-0.790311677,-0.4562743921,-0.3223569191,-0.25,2
-0.8120537236,-0.4695508555,-0.3281187608,-0.5846573128,0.9908929077,0.3097942908,-0.9530220845,-0.0024897077,0.9064662303,-0.3227394511,-0.25,5
-0.8120537236,-0.4695508555,-0.3281187608,-0.5846573128,0.9908929077,0.3097942908,-0.9530220845,-0.0024897077,0.9064662303,-0.3227394511,-0.25,5
-0.7682084211,-0.4709356591,-0.3331157611,-0.5736911921,0.9964933608,-0.6227980707,-0.9463892936,0.0230743481,0.8722051063,-0.3223908231,-0.25,5
-0.7682084211,-0.4709356591,-0.3331157611,-0.5736911921,0.9964933608,-0.6227980707,-0.9463892936,0.0230743481,0.8722051063,-0.3223908231,-0.25,5
0.4734252451,-0.2492635589,-0.3201765435,-0.1815439584,0.9399564221,-0.3889380732,-0.9061494634,0.5519890767,-0.2106144731,-0.1242089215,-0.25,3
0.102267282,0.7550118187,-0.3271017423,0.0415070614,0.8995387807,-0.1829533426,-0.8022388148,0.0970743493,-0.0582923955,0.7947999739,-0.25,4
0.102267282,0.7550118187,-0.3271017423,0.0415070614,0.8995387807,-0.1829533426,-0.8022388148,0.0970743493,-0.0582923955,0.7947999739,-0.25,4
0.102267282,0.7550118187,-0.3271017423,0.0415070614,0.8995387807,-0.1829533426,-0.8022388148,0.0970743493,-0.0582923955,0.7947999739,-0.25,4
-1.778367E-4,-1.019941E-4,0.999708479,-0.9989867917,-0.9995643188,0.6703328741,-0.9999869808,-0.7903965341,-0.4561368242,-0.3227476317,-0.25,2
-1.778367E-4,-1.019941E-4,0.999708479,-0.9989867917,-0.9995643188,0.6703328741,-0.9999869808,-0.7903965341,-0.4561368242,-0.3227476317,-0.25,2
-1.778367E-4,-1.019941E-4,0.999708479,-0.9989867917,-0.9995643188,0.6703328741,-0.9999869808,-0.7903965341,-0.4561368242,-0.3227476317,-0.25,2
-1.778367E-4,-1.019941E-4,0.999708479,-0.9989867917,-0.9995643188,0.6703328741,-0.9999869808,-0.7903965341,-0.4561368242,-0.3227476317,-0.25,2
-1.778367E-4,-1.019941E-4,0.999708479,-0.9989867917,-0.9995643188,0.6703328741,-0.9999869808,-0.7903965341,-0.4561368242,-0.3227476317,-0.25,2
-1.778367E-4,-1.019941E-4,0.999708479,-0.9989867917,-0.9995643188,0.6703328741,-0.9999869808,-0.7903965341,-0.4561368242,-0.3227476317,-0.25,2
-1.778367E-4,-1.019941E-4,0.999708479,-0.9989867917,-0.9995643188,0.6703328741,-0.9999869808,-0.7903965341,-0.4561368242,-0.3227476317,-0.25,2
-0.7682084211,-0.4709356591,-0.3331157611,-0.5736911921,0.9964933608,-0.6227980707,-0.9463892936,0.0230743481,0.8722051063,-0.3223908231,-0.25,5
-0.7682084211,-0.4709356591,-0.3331157611,-0.5736911921,0.9964933608,-0.6227980707,-0.9463892936,0.0230743481,0.8722051063,-0.3223908231,-0.25,5
0.4734252451,-0.2492635589,-0.3201765435,-0.1815439584,0.9399564221,-0.3889380732,-0.9061494634,0.5519890767,-0.2106144731,-0.1242089215,-0.25,3
0.0246115732,0.8971365047,-0.3303168202,0.0730261259,0.9060788469,-0.031649334,-0.7959238312,0.0222961258,-0.0146439012,0.92557913,-0.25,4
0.0246115732,0.8971365047,-0.3303168202,0.0730261259,0.9060788469,-0.031649334,-0.7959238312,0.0222961258,-0.0146439012,0.92557913,-0.25,4
0.0215657472,0.8925711377,-0.3163598714,-0.1121102016,0.6544346014,-0.0044817509,-0.8419576152,0.0110636936,-0.0177236118,0.9169069533,-0.25,4
-0.7682084211,-0.4709356591,-0.3331157611,-0.5736911921,0.9964933608,-0.6227980707,-0.9463892936,0.0230743481,0.8722051063,-0.3223908231,-0.25,5
-0.7682084211,-0.4709356591,-0.3331157611,-0.5736911921,0.9964933608,-0.6227980707,-0.9463892936,0.0230743481,0.8722051063,-0.3223908231,-0.25,5
0.102267282,0.7550118187,-0.3271017423,0.0415070614,0.8995387807,-0.1829533426,-0.8022388148,0.0970743493,-0.0582923955,0.7947999739,-0.25,4
-0.7682084211,-0.4709356591,-0.3331157611,-0.5736911921,0.9964933608,-0.6227980707,-0.9463892936,0.0230743481,0.8722051063,-0.3223908231,-0.25,5
-0.7682084211,-0.4709356591,-0.3331157611,-0.5736911921,0.9964933608,-0.6227980707,-0.9463892936,0.0230743481,0.8722051063,-0.3223908231,-0.25,5
0.0811680699,0.7939654917,-0.327966616,0.0519903058,0.9024402531,-0.1551707507,-0.797883538,0.0766555973,-0.0464915312,0.8306387863,-0.25,4
0.0190768216,0.718896519,-0.0659489945,-0.4794100166,-0.47307671,-0.0420247971,-0.9621055671,-0.1395649011,-0.1019063681,0.6775446798,-0.25,4
0.0137164136,0.7157125175,-0.0473110235,-0.5362859648,-0.5500312192,-0.0325569283,-0.9688035904,-0.1560046519,-0.1054047444,0.6686227181,-0.25,4
0.021392827,0.8981578289,-0.3237268485,-0.0421596274,0.7697254535,-0.0026386725,-0.8230890694,0.0152425581,-0.0151176127,0.9243845629,-0.25,4
-0.8023269972,-0.4634267017,-0.3107813564,-0.5904274403,0.9653329775,0.5514723435,-0.952220321,-0.0131989512,0.8894084349,-0.3227445123,-0.25,5
-0.8023269972,-0.4634267017,-0.3107813564,-0.5904274403,0.9653329775,0.5514723435,-0.952220321,-0.0131989512,0.8894084349,-0.3227445123,-0.25,5
-0.8023269972,-0.4634267017,-0.3107813564,-0.5904274403,0.9653329775,0.5514723435,-0.952220321,-0.0131989512,0.8894084349,-0.3227445123,-0.25,5
-0.8023269972,-0.4634267017,-0.3107813564,-0.5904274403,0.9653329775,0.5514723435,-0.952220321,-0.0131989512,0.8894084349,-0.3227445123,-0.25,5
-0.8144704787,-0.4712366884,-0.3328766099,-0.5836113713,0.9974100442,-0.0405487006,-0.954221583,5.729003E-4,0.9109364422,-0.3227428097,-0.25,5
-0.8144704787,-0.4712366884,-0.3328766099,-0.5836113713,0.9974100442,-0.0405487006,-0.954221583,5.729003E-4,0.9109364422,-0.3227428097,-0.25,5
0.0644303072,0.8247088642,-0.3286876921,0.0607497162,0.9051095712,-0.1280609732,-0.79483869,0.0605294896,-0.0370885563,0.8589362436,-0.25,4
-0.8137310946,-0.4712893737,-0.3330337436,-0.5833802883,0.9974269042,-0.1597872405,-0.953429148,0.0010698042,0.9103966733,-0.3227401899,-0.25,5
-0.8137310946,-0.4712893737,-0.3330337436,-0.5833802883,0.9974269042,-0.1597872405,-0.953429148,0.0010698042,0.9103966733,-0.3227401899,-0.25,5
-1.362784E-4,-7.69042E-5,0.9997746936,-0.998333146,-0.9996659802,0.6587262428,-0.9999898798,-0.7904357748,-0.4562059435,-0.3227460984,-0.25,2
-1.362784E-4,-7.69042E-5,0.9997746936,-0.998333146,-0.9996659802,0.6587262428,-0.9999898798,-0.7904357748,-0.4562059435,-0.3227460984,-0.25,2
-1.362784E-4,-7.69042E-5,0.9997746936,-0.998333146,-0.9996659802,0.6587262428,-0.9999898798,-0.7904357748,-0.4562059435,-0.3227460984,-0.25,2
-0.7972278703,-0.4604657695,-0.3024069757,-0.5929982697,0.952815106,0.5762067056,-0.9523296462,-0.0181784819,0.8808325043,-0.3227443831,-0.25,5
-0.7972278703,-0.4604657695,-0.3024069757,-0.5929982697,0.952815106,0.5762067056,-0.9523296462,-0.0181784819,0.8808325043,-0.3227443831,-0.25,5
-1.362784E-4,-7.69042E-5,0.9997746936,-0.998333146,-0.9996659802,0.6587262428,-0.9999898798,-0.7904357748,-0.4562059435,-0.3227460984,-0.25,2
0.0150035051,0.7460453272,-0.0934462114,-0.5106364463,-0.4683718974,-0.0264034359,-0.9621445505,-0.1273867509,-0.0903212036,0.7112027261,-0.25,4
-1.362784E-4,-7.69042E-5,0.9997746936,-0.998333146,-0.9996659802,0.6587262428,-0.9999898798,-0.7904357748,-0.4562059435,-0.3227460984,-0.25,2
-1.362784E-4,-7.69042E-5,0.9997746936,-0.998333146,-0.9996659802,0.6587262428,-0.9999898798,-0.7904357748,-0.4562059435,-0.3227460984,-0.25,2
-1.362784E-4,-7.69042E-5,0.9997746936,-0.998333146,-0.9996659802,0.6587262428,-0.9999898798,-0.7904357748,-0.4562059435,-0.3227460984,-0.25,2
-0.7811570683,-0.4710998997,-0.333178495,-0.576542971,0.99666933,-0.6174276933,-0.9460843733,0.0169011134,0.8831180152,-0.3225205063,-0.25,5
-0.7811570683,-0.4710998997,-0.333178495,-0.576542971,0.99666933,-0.6174276933,-0.9460843733,0.0169011134,0.8831180152,-0.3225205063,-0.25,5
-0.7811570683,-0.4710998997,-0.333178495,-0.576542971,0.99666933,-0.6174276933,-0.9460843733,0.0169011134,0.8831180152,-0.3225205063,-0.25,5
-0.7811570683,-0.4710998997,-0.333178495,-0.576542971,0.99666933,-0.6174276933,-0.9460843733,0.0169011134,0.8831180152,-0.3225205063,-0.25,5
0.0215657472,0.8925711377,-0.3163598714,-0.1121102016,0.6544346014,-0.0044817509,-0.8419576152,0.0110636936,-0.0177236118,0.9169069533,-0.25,4
-0.8129332893,-0.4698883735,-0.3290640481,-0.5846588814,0.992330791,0.3160825204,-0.9529229344,-0.0020738712,0.9076896979,-0.3227424713,-0.25,5
-0.8129332893,-0.4698883735,-0.3290640481,-0.5846588814,0.992330791,0.3160825204,-0.9529229344,-0.0020738712,0.9076896979,-0.3227424713,-0.25,5
-0.808652134,-0.4671266343,-0.3212460177,-0.587228194,0.9809212513,0.4901905077,-0.9521879274,-0.0069538911,0.90008574,-0.3227446183,-0.25,5
-0.808652134,-0.4671266343,-0.3212460177,-0.587228194,0.9809212513,0.4901905077,-0.9521879274,-0.0069538911,0.90008574,-0.3227446183,-0.25,5
0.0223605012,0.9001148412,-0.3288607521,0.0380364428,0.8709136085,-0.0122080048,-0.8033251278,0.019222737,-0.013901548,0.9278280228,-0.25,4
-0.002057344,-0.0011878616,0.9966399738,-0.998829674,-0.99496127,0.7018808281,-0.9998608417,-0.788577071,-0.4529850037,-0.3227485327,-0.25,2
-0.002057344,-0.0011878616,0.9966399738,-0.998829674,-0.99496127,0.7018808281,-0.9998608417,-0.788577071,-0.4529850037,-0.3227485327,-0.25,2
-0.002057344,-0.0011878616,0.9966399738,-0.998829674,-0.99496127,0.7018808281,-0.9998608417,-0.788577071,-0.4529850037,-0.3227485327,-0.25,2
-0.002057344,-0.0011878616,0.9966399738,-0.998829674,-0.99496127,0.7018808281,-0.9998608417,-0.788577071,-0.4529850037,-0.3227485327,-0.25,2
-0.002057344,-0.0011878616,0.9966399738,-0.998829674,-0.99496127,0.7018808281,-0.9998608417,-0.788577071,-0.4529850037,-0.3227485327,-0.25,2
-0.002057344,-0.0011878616,0.9966399738,-0.998829674,-0.99496127,0.7018808281,-0.9998608417,-0.788577071,-0.4529850037,-0.3227485327,-0.25,2
-0.002057344,-0.0011878616,0.9966399738,-0.998829674,-0.99496127,0.7018808281,-0.9998608417,-0.788577071,-0.4529850037,-0.3227485327,-0.25,2
-0.002057344,-0.0011878616,0.9966399738,-0.998829674,-0.99496127,0.7018808281,-0.9998608417,-0.788577071,-0.4529850037,-0.3227485327,-0.25,2
-0.808652134,-0.4671266343,-0.3212460177,-0.587228194,0.9809212513,0.4901905077,-0.9521879274,-0.0069538911,0.90008574,-0.3227446183,-0.25,5
0.0190768216,0.718896519,-0.0659489945,-0.4794100166,-0.47307671,-0.0420247971,-0.9621055671,-0.1395649011,-0.1019063681,0.6775446798,-0.25,4
-0.7811570683,-0.4710998997,-0.333178495,-0.576542971,0.99666933,-0.6174276933,-0.9460843733,0.0169011134,0.8831180152,-0.3225205063,-0.25,5
-0.7811570683,-0.4710998997,-0.333178495,-0.576542971,0.99666933,-0.6174276933,-0.9460843733,0.0169011134,0.8831180152,-0.3225205063,-0.25,5
-0.7811570683,-0.4710998997,-0.333178495,-0.576542971,0.99666933,-0.6174276933,-0.9460843733,0.0169011134,0.8831180152,-0.3225205063,-0.25,5
-0.7811570683,-0.4710998997,-0.333178495,-0.576542971,0.99666933,-0.6174276933,-0.9460843733,0.0169011134,0.8831180152,-0.3225205063,-0.25,5
0.0811680699,0.7939654917,-0.327966616,0.0519903058,0.9024402531,-0.1551707507,-0.797883538,0.0766555973,-0.0464915312,0.8306387863,-0.25,4
-0.7682084211,-0.4709356591,-0.3331157611,-0.5736911921,0.9964933608,-0.6227980707,-0.9463892936,0.0230743481,0.8722051063,-0.3223908231,-0.25,5
-0.7682084211,-0.4709356591,-0.3331157611,-0.5736911921,0.9964933608,-0.6227980707,-0.9463892936,0.0230743481,0.8722051063,-0.3223908231,-0.25,5
0.0286259516,0.8899294835,-0.3302265408,0.0753189246,0.9082098097,-0.0437669084,-0.7938906543,0.0261826299,-0.0168882384,0.9189709122,-0.25,4
-0.7901888776,-0.456388542,-0.2908753915,-0.5965479404,0.9355552523,0.5973617303,-0.9525241052,-0.0250268818,0.8690087458,-0.3227442035,-0.25,5
-0.7901888776,-0.456388542,-0.2908753915,-0.5965479404,0.9355552523,0.5973617303,-0.9525241052,-0.0250268818,0.8690087458,-0.3227442035,-0.25,5
-1.778367E-4,-1.019941E-4,0.999708479,-0.9989867917,-0.9995643188,0.6703328741,-0.9999869808,-0.7903965341,-0.4561368242,-0.3227476317,-0.25,2
-1.778367E-4,-1.019941E-4,0.999708479,-0.9989867917,-0.9995643188,0.6703328741,-0.9999869808,-0.7903965341,-0.4561368242,-0.3227476317,-0.25,2
-1.778367E-4,-1.019941E-4,0.999708479,-0.9989867917,-0.9995643188,0.6703328741,-0.9999869808,-0.7903965341,-0.4561368242,-0.3227476317,-0.25,2
-1.778367E-4,-1.019941E-4,0.999708479,-0.9989867917,-0.9995643188,0.6703328741,-0.9999869808,-0.7903965341,-0.4561368242,-0.3227476317,-0.25,2
-1.778367E-4,-1.019941E-4,0.999708479,-0.9989867917,-0.9995643188,0.6703328741,-0.9999869808,-0.7903965341,-0.4561368242,-0.3227476317,-0.25,2
-1.778367E-4,-1.019941E-4,0.999708479,-0.9989867917,-0.9995643188,0.6703328741,-0.9999869808,-0.7903965341,-0.4561368242,-0.3227476317,-0.25,2
-1.778367E-4,-1.019941E-4,0.999708479,-0.9989867917,-0.9995643188,0.6703328741,-0.9999869808,-0.7903965341,-0.4561368242,-0.3227476317,-0.25,2
-1.778367E-4,-1.019941E-4,0.999708479,-0.9989867917,-0.9995643188,0.6703328741,-0.9999869808,-0.7903965341,-0.4561368242,-0.3227476317,-0.25,2
0.0514412581,0.8484695463,-0.3292657862,0.0676219172,0.9072544445,-0.1025859536,-0.793027866,0.0480569042,-0.0297674084,0.8808132587,-0.25,4
0.0415451673,0.8665086916,-0.3297084086,0.0724486329,0.9086235673,-0.0796113722,-0.7923423078,0.0385738092,-0.02417831,0.8974235257,-0.25,4
-0.8099266496,-0.4712935333,-0.3330952693,-0.582565901,0.9971357975,-0.3623584494,-0.9509941985,0.0029614263,0.9072353029,-0.3227241298,-0.25,5
-0.8099266496,-0.4712935333,-0.3330952693,-0.582565901,0.9971357975,-0.3623584494,-0.9509941985,0.0029614263,0.9072353029,-0.3227241298,-0.25,5
-0.002057344,-0.0011878616,0.9966399738,-0.998829674,-0.99496127,0.7018808281,-0.9998608417,-0.788577071,-0.4529850037,-0.3227485327,-0.25,2
-0.002057344,-0.0011878616,0.9966399738,-0.998829674,-0.99496127,0.7018808281,-0.9998608417,-0.788577071,-0.4529850037,-0.3227485327,-0.25,2
-0.002057344,-0.0011878616,0.9966399738,-0.998829674,-0.99496127,0.7018808281,-0.9998608417,-0.788577071,-0.4529850037,-0.3227485327,-0.25,2
-0.002057344,-0.0011878616,0.9966399738,-0.998829674,-0.99496127,0.7018808281,-0.9998608417,-0.788577071,-0.4529850037,-0.3227485327,-0.25,2
-0.002057344,-0.0011878616,0.9966399738,-0.998829674,-0.99496127,0.7018808281,-0.9998608417,-0.788577071,-0.4529850037,-0.3227485327,-0.25,2
-0.002057344,-0.0011878616,0.9966399738,-0.998829674,-0.99496127,0.7018808281,-0.9998608417,-0.788577071,-0.4529850037,-0.3227485327,-0.25,2
0.1724885666,0.0300115261,0.155199666,-0.176264035,-0.002573409,-0.2022157066,-0.9436795147,-0.0475789175,-0.220317781,-0.0226938271,-0.25,3
0.1724885666,0.0300115261,0.155199666,-0.176264035,-0.002573409,-0.2022157066,-0.9436795147,-0.0475789175,-0.220317781,-0.0226938271,-0.25,3
0.4734252451,-0.2492635589,-0.3201765435,-0.1815439584,0.9399564221,-0.3889380732,-0.9061494634,0.5519890767,-0.2106144731,-0.1242089215,-0.25,3
-0.7811570683,-0.4710998997,-0.333178495,-0.576542971,0.99666933,-0.6174276933,-0.9460843733,0.0169011134,0.8831180152,-0.3225205063,-0.25,5
-0.7811570683,-0.4710998997,-0.333178495,-0.576542971,0.99666933,-0.6174276933,-0.9460843733,0.0169011134,0.8831180152,-0.3225205063,-0.25,5
-1.202984E-4,-6.65591E-5,0.9997991253,-0.9978517865,-0.9997050187,0.6511047886,-0.9999910298,-0.790450245,-0.456232164,-0.3227445401,-0.25,2
-2.595053E-4,-1.461978E-4,0.9995704,-0.9969121579,-0.9993637186,0.6572093592,-0.9999808105,-0.7903145553,-0.4559981856,-0.3227434191,-0.25,2
-2.595053E-4,-1.461978E-4,0.9995704,-0.9969121579,-0.9993637186,0.6572093592,-0.9999808105,-0.7903145553,-0.4559981856,-0.3227434191,-0.25,2
-2.595053E-4,-1.461978E-4,0.9995704,-0.9969121579,-0.9993637186,0.6572093592,-0.9999808105,-0.7903145553,-0.4559981856,-0.3227434191,-0.25,2
-2.595053E-4,-1.461978E-4,0.9995704,-0.9969121579,-0.9993637186,0.6572093592,-0.9999808105,-0.7903145553,-0.4559981856,-0.3227434191,-0.25,2
-2.595053E-4,-1.461978E-4,0.9995704,-0.9969121579,-0.9993637186,0.6572093592,-0.9999808105,-0.7903145553,-0.4559981856,-0.3227434191,-0.25,2
-1.853118E-4,-1.045114E-4,0.9996934745,-0.997760132,-0.9995457311,0.6581441393,-0.9999862629,-0.7903875872,-0.4561233013,-0.3227450869,-0.25,2
0.4734252451,-0.2492635589,-0.3201765435,-0.1815439584,0.9399564221,-0.3889380732,-0.9061494634,0.5519890767,-0.2106144731,-0.1242089215,-0.25,3
0.4734252451,-0.2492635589,-0.3201765435,-0.1815439584,0.9399564221,-0.3889380732,-0.9061494634,0.5519890767,-0.2106144731,-0.1242089215,-0.25,3
-0.8107642841,-0.4713740831,-0.3333080132,-0.5825006916,0.997193891,-0.5057108222,-0.9434447342,0.0027466114,0.9080477833,-0.3227289985,-0.25,5
-0.8107642841,-0.4713740831,-0.3333080132,-0.5825006916,0.997193891,-0.5057108222,-0.9434447342,0.0027466114,0.9080477833,-0.3227289985,-0.25,5
0.0811680699,0.7939654917,-0.327966616,0.0519903058,0.9024402531,-0.1551707507,-0.797883538,0.0766555973,-0.0464915312,0.8306387863,-0.25,4
0.0190768216,0.718896519,-0.0659489945,-0.4794100166,-0.47307671,-0.0420247971,-0.9621055671,-0.1395649011,-0.1019063681,0.6775446798,-0.25,4
0.0811680699,0.7939654917,-0.327966616,0.0519903058,0.9024402531,-0.1551707507,-0.797883538,0.0766555973,-0.0464915312,0.8306387863,-0.25,4
-3.485726E-4,-2.01122E-4,0.9994305193,-0.9994934903,-0.999146268,0.6855197762,-0.9999755476,-0.7902317377,-0.4558507905,-0.3227484115,-0.25,2
-3.485726E-4,-2.01122E-4,0.9994305193,-0.9994934903,-0.999146268,0.6855197762,-0.9999755476,-0.7902317377,-0.4558507905,-0.3227484115,-0.25,2
-3.485726E-4,-2.01122E-4,0.9994305193,-0.9994934903,-0.999146268,0.6855197762,-0.9999755476,-0.7902317377,-0.4558507905,-0.3227484115,-0.25,2
-3.485726E-4,-2.01122E-4,0.9994305193,-0.9994934903,-0.999146268,0.6855197762,-0.9999755476,-0.7902317377,-0.4558507905,-0.3227484115,-0.25,2
-3.485726E-4,-2.01122E-4,0.9994305193,-0.9994934903,-0.999146268,0.6855197762,-0.9999755476,-0.7902317377,-0.4558507905,-0.3227484115,-0.25,2
-3.485726E-4,-2.01122E-4,0.9994305193,-0.9994934903,-0.999146268,0.6855197762,-0.9999755476,-0.7902317377,-0.4558507905,-0.3227484115,-0.25,2
-3.485726E-4,-2.01122E-4,0.9994305193,-0.9994934903,-0.999146268,0.6855197762,-0.9999755476,-0.7902317377,-0.4558507905,-0.3227484115,-0.25,2
-3.485726E-4,-2.01122E-4,0.9994305193,-0.9994934903,-0.999146268,0.6855197762,-0.9999755476,-0.7902317377,-0.4558507905,-0.3227484115,-0.25,2
-0.8105524386,-0.4682564941,-0.3244418,-0.5862556057,0.9856494243,0.4534852652,-0.9522581189,-0.0050315789,0.9033201925,-0.3227446002,-0.25,5
-0.8105524386,-0.4682564941,-0.3244418,-0.5862556057,0.9856494243,0.4534852652,-0.9522581189,-0.0050315789,0.9033201925,-0.3227446002,-0.25,5
-0.7682084211,-0.4709356591,-0.3331157611,-0.5736911921,0.9964933608,-0.6227980707,-0.9463892936,0.0230743481,0.8722051063,-0.3223908231,-0.25,5
-0.7682084211,-0.4709356591,-0.3331157611,-0.5736911921,0.9964933608,-0.6227980707,-0.9463892936,0.0230743481,0.8722051063,-0.3223908231,-0.25,5
-0.7901888776,-0.456388542,-0.2908753915,-0.5965479404,0.9355552523,0.5973617303,-0.9525241052,-0.0250268818,0.8690087458,-0.3227442035,-0.25,5
-0.7901888776,-0.456388542,-0.2908753915,-0.5965479404,0.9355552523,0.5973617303,-0.9525241052,-0.0250268818,0.8690087458,-0.3227442035,-0.25,5
-1.550834E-4,-8.84439E-5,0.9997450088,-0.9987058314,-0.9996199944,0.6650367805,-0.9999885543,-0.7904181854,-0.4561747636,-0.322747052,-0.25,2
-1.550834E-4,-8.84439E-5,0.9997450088,-0.9987058314,-0.9996199944,0.6650367805,-0.9999885543,-0.7904181854,-0.4561747636,-0.322747052,-0.25,2
-1.550834E-4,-8.84439E-5,0.9997450088,-0.9987058314,-0.9996199944,0.6650367805,-0.9999885543,-0.7904181854,-0.4561747636,-0.322747052,-0.25,2
-1.550834E-4,-8.84439E-5,0.9997450088,-0.9987058314,-0.9996199944,0.6650367805,-0.9999885543,-0.7904181854,-0.4561747636,-0.322747052,-0.25,2
-1.550834E-4,-8.84439E-5,0.9997450088,-0.9987058314,-0.9996199944,0.6650367805,-0.9999885543,-0.7904181854,-0.4561747636,-0.322747052,-0.25,2
-1.550834E-4,-8.84439E-5,0.9997450088,-0.9987058314,-0.9996199944,0.6650367805,-0.9999885543,-0.7904181854,-0.4561747636,-0.322747052,-0.25,2
-1.550834E-4,-8.84439E-5,0.9997450088,-0.9987058314,-0.9996199944,0.6650367805,-0.9999885543,-0.7904181854,-0.4561747636,-0.322747052,-0.25,2
0.0514412581,0.8484695463,-0.3292657862,0.0676219172,0.9072544445,-0.1025859536,-0.793027866,0.0480569042,-0.0297674084,0.8808132587,-0.25,4
-0.7811570683,-0.4710998997,-0.333178495,-0.576542971,0.99666933,-0.6174276933,-0.9460843733,0.0169011134,0.8831180152,-0.3225205063,-0.25,5
-0.7811570683,-0.4710998997,-0.333178495,-0.576542971,0.99666933,-0.6174276933,-0.9460843733,0.0169011134,0.8831180152,-0.3225205063,-0.25,5
0.4734252451,-0.2492635589,-0.3201765435,-0.1815439584,0.9399564221,-0.3889380732,-0.9061494634,0.5519890767,-0.2106144731,-0.1242089215,-0.25,3
-2.418659E-4,-1.393635E-4,0.9996045373,-0.999338395,-0.9994075673,0.6788100661,-0.9999826509,-0.7903349139,-0.456029661,-0.322748198,-0.25,2
-2.418659E-4,-1.393635E-4,0.9996045373,-0.999338395,-0.9994075673,0.6788100661,-0.9999826509,-0.7903349139,-0.456029661,-0.322748198,-0.25,2
-2.418659E-4,-1.393635E-4,0.9996045373,-0.999338395,-0.9994075673,0.6788100661,-0.9999826509,-0.7903349139,-0.456029661,-0.322748198,-0.25,2
-2.418659E-4,-1.393635E-4,0.9996045373,-0.999338395,-0.9994075673,0.6788100661,-0.9999826509,-0.7903349139,-0.456029661,-0.322748198,-0.25,2
-2.418659E-4,-1.393635E-4,0.9996045373,-0.999338395,-0.9994075673,0.6788100661,-0.9999826509,-0.7903349139,-0.456029661,-0.322748198,-0.25,2
-2.418659E-4,-1.393635E-4,0.9996045373,-0.999338395,-0.9994075673,0.6788100661,-0.9999826509,-0.7903349139,-0.456029661,-0.322748198,-0.25,2
-2.418659E-4,-1.393635E-4,0.9996045373,-0.999338395,-0.9994075673,0.6788100661,-0.9999826509,-0.7903349139,-0.456029661,-0.322748198,-0.25,2
-2.418659E-4,-1.393635E-4,0.9996045373,-0.999338395,-0.9994075673,0.6788100661,-0.9999826509,-0.7903349139,-0.456029661,-0.322748198,-0.25,2
-2.418659E-4,-1.393635E-4,0.9996045373,-0.999338395,-0.9994075673,0.6788100661,-0.9999826509,-0.7903349139,-0.456029661,-0.322748198,-0.25,2
-0.8139424788,-0.4713456375,-0.3331886437,-0.5834034746,0.9975201959,-0.2376651365,-0.952057388,0.0011056538,0.9106537057,-0.3227415578,-0.25,5
-0.8139424788,-0.4713456375,-0.3331886437,-0.5834034746,0.9975201959,-0.2376651365,-0.952057388,0.0011056538,0.9106537057,-0.3227415578,-0.25,5
-0.8139424788,-0.4713456375,-0.3331886437,-0.5834034746,0.9975201959,-0.2376651365,-0.952057388,0.0011056538,0.9106537057,-0.3227415578,-0.25,5
-0.8139424788,-0.4713456375,-0.3331886437,-0.5834034746,0.9975201959,-0.2376651365,-0.952057388,0.0011056538,0.9106537057,-0.3227415578,-0.25,5
-0.8139424788,-0.4713456375,-0.3331886437,-0.5834034746,0.9975201959,-0.2376651365,-0.952057388,0.0011056538,0.9106537057,-0.3227415578,-0.25,5
-0.8139424788,-0.4713456375,-0.3331886437,-0.5834034746,0.9975201959,-0.2376651365,-0.952057388,0.0011056538,0.9106537057,-0.3227415578,-0.25,5
0.0901866755,0.7648826621,-0.3110291838,-0.0543209995,0.7537641174,-0.1480593716,-0.8283067994,0.075760393,-0.0570914852,0.7986233839,-0.25,4
-0.8120537236,-0.4695508555,-0.3281187608,-0.5846573128,0.9908929077,0.3097942908,-0.9530220845,-0.0024897077,0.9064662303,-0.3227394511,-0.25,5
-0.8120537236,-0.4695508555,-0.3281187608,-0.5846573128,0.9908929077,0.3097942908,-0.9530220845,-0.0024897077,0.9064662303,-0.3227394511,-0.25,5
-1.550834E-4,-8.84439E-5,0.9997450088,-0.9987058314,-0.9996199944,0.6650367805,-0.9999885543,-0.7904181854,-0.4561747636,-0.322747052,-0.25,2
-1.550834E-4,-8.84439E-5,0.9997450088,-0.9987058314,-0.9996199944,0.6650367805,-0.9999885543,-0.7904181854,-0.4561747636,-0.322747052,-0.25,2
-1.550834E-4,-8.84439E-5,0.9997450088,-0.9987058314,-0.9996199944,0.6650367805,-0.9999885543,-0.7904181854,-0.4561747636,-0.322747052,-0.25,2
-1.550834E-4,-8.84439E-5,0.9997450088,-0.9987058314,-0.9996199944,0.6650367805,-0.9999885543,-0.7904181854,-0.4561747636,-0.322747052,-0.25,2
-1.550834E-4,-8.84439E-5,0.9997450088,-0.9987058314,-0.9996199944,0.6650367805,-0.9999885543,-0.7904181854,-0.4561747636,-0.322747052,-0.25,2
-1.550834E-4,-8.84439E-5,0.9997450088,-0.9987058314,-0.9996199944,0.6650367805,-0.9999885543,-0.7904181854,-0.4561747636,-0.322747052,-0.25,2
-1.550834E-4,-8.84439E-5,0.9997450088,-0.9987058314,-0.9996199944,0.6650367805,-0.9999885543,-0.7904181854,-0.4561747636,-0.322747052,-0.25,2
-1.550834E-4,-8.84439E-5,0.9997450088,-0.9987058314,-0.9996199944,0.6650367805,-0.9999885543,-0.7904181854,-0.4561747636,-0.322747052,-0.25,2
2.288479E-4,0.051062068,0.9271872465,-0.934718523,-0.9960073735,-0.219114129,-0.9998485544,-0.7471673705,-0.4316331422,-0.2526353195,-0.25,2
2.288479E-4,0.051062068,0.9271872465,-0.934718523,-0.9960073735,-0.219114129,-0.9998485544,-0.7471673705,-0.4316331422,-0.2526353195,-0.25,2
0.0415451673,0.8665086916,-0.3297084086,0.0724486329,0.9086235673,-0.0796113722,-0.7923423078,0.0385738092,-0.02417831,0.8974235257,-0.25,4
0.4734252451,-0.2492635589,-0.3201765435,-0.1815439584,0.9399564221,-0.3889380732,-0.9061494634,0.5519890767,-0.2106144731,-0.1242089215,-0.25,3
-0.810102102,-0.4712632149,-0.3330100014,-0.582573462,0.9970888242,-0.3164535058,-0.9519872937,0.0028006013,0.9073386123,-0.3227239731,-0.25,5
-0.810102102,-0.4712632149,-0.3330100014,-0.582573462,0.9970888242,-0.3164535058,-0.9519872937,0.0028006013,0.9073386123,-0.3227239731,-0.25,5
-0.8128757695,-0.4696840658,-0.3284800723,-0.5850297191,0.9915552618,0.3689661959,-0.9525839422,-0.0025648037,0.9073419488,-0.3227444421,-0.25,5
-0.8128757695,-0.4696840658,-0.3284800723,-0.5850297191,0.9915552618,0.3689661959,-0.9525839422,-0.0025648037,0.9073419488,-0.3227444421,-0.25,5
-0.7805419261,-0.4508085237,-0.275093414,-0.6014180583,0.9119147201,0.6153246457,-0.9528408375,-0.0343929828,0.8528156052,-0.3227439783,-0.25,5
-0.7805419261,-0.4508085237,-0.275093414,-0.6014180583,0.9119147201,0.6153246457,-0.9528408375,-0.0343929828,0.8528156052,-0.3227439783,-0.25,5
-0.8133633544,-0.4713720445,-0.3332683989,-0.5832394273,0.9974177912,-0.3587733319,-0.9487635315,0.0014564542,0.9102087597,-0.322739923,-0.25,5
-0.8133633544,-0.4713720445,-0.3332683989,-0.5832394273,0.9974177912,-0.3587733319,-0.9487635315,0.0014564542,0.9102087597,-0.322739923,-0.25,5
-0.7805419261,-0.4508085237,-0.275093414,-0.6014180583,0.9119147201,0.6153246457,-0.9528408375,-0.0343929828,0.8528156052,-0.3227439783,-0.25,5
-0.7805419261,-0.4508085237,-0.275093414,-0.6014180583,0.9119147201,0.6153246457,-0.9528408375,-0.0343929828,0.8528156052,-0.3227439783,-0.25,5
-0.8141206068,-0.4710524363,-0.3323602625,-0.5836498666,0.9968009814,0.0530128821,-0.9542399107,2.825729E-4,0.9103776528,-0.3227412618,-0.25,5
-0.8141206068,-0.4710524363,-0.3323602625,-0.5836498666,0.9968009814,0.0530128821,-0.9542399107,2.825729E-4,0.9103776528,-0.3227412618,-0.25,5
-0.8119114505,-0.4690805655,-0.3267728128,-0.5855477623,0.9890733497,0.4129464683,-0.9523896842,-0.0036163454,0.9056566995,-0.3227445399,-0.25,5
-0.8119114505,-0.4690805655,-0.3267728128,-0.5855477623,0.9890733497,0.4129464683,-0.9523896842,-0.0036163454,0.9056566995,-0.3227445399,-0.25,5
0.4734252451,-0.2492635589,-0.3201765435,-0.1815439584,0.9399564221,-0.3889380732,-0.9061494634,0.5519890767,-0.2106144731,-0.1242089215,-0.25,3
0.1724885666,0.0300115261,0.155199666,-0.176264035,-0.002573409,-0.2022157066,-0.9436795147,-0.0475789175,-0.220317781,-0.0226938271,-0.25,3
-0.7682084211,-0.4709356591,-0.3331157611,-0.5736911921,0.9964933608,-0.6227980707,-0.9463892936,0.0230743481,0.8722051063,-0.3223908231,-0.25,5
-0.7682084211,-0.4709356591,-0.3331157611,-0.5736911921,0.9964933608,-0.6227980707,-0.9463892936,0.0230743481,0.8722051063,-0.3223908231,-0.25,5
-0.7901888776,-0.456388542,-0.2908753915,-0.5965479404,0.9355552523,0.5973617303,-0.9525241052,-0.0250268818,0.8690087458,-0.3227442035,-0.25,5
-0.7901888776,-0.456388542,-0.2908753915,-0.5965479404,0.9355552523,0.5973617303,-0.9525241052,-0.0250268818,0.8690087458,-0.3227442035,-0.25,5
0.4453151568,-0.2902721048,-0.3209914694,-0.2017251684,0.9461030877,-0.3986779754,-0.909981642,0.5504868312,-0.1800537608,-0.1613814148,-0.25,3
0.4734252451,-0.2492635589,-0.3201765435,-0.1815439584,0.9399564221,-0.3889380732,-0.9061494634,0.5519890767,-0.2106144731,-0.1242089215,-0.25,3
-0.7968052836,-0.471265902,-0.333250342,-0.5798484339,0.9968866016,-0.5998680677,-0.9452979765,0.0094286528,0.8962990247,-0.3226488564,-0.25,5
-0.7968052836,-0.471265902,-0.333250342,-0.5798484339,0.9968866016,-0.5998680677,-0.9452979765,0.0094286528,0.8962990247,-0.3226488564,-0.25,5
0.0216832165,0.8883134094,-0.3107021611,-0.1508406919,0.5793435712,-0.006269905,-0.8528886565,0.0078378217,-0.0197174045,0.9111941787,-0.25,4
0.0216832165,0.8883134094,-0.3107021611,-0.1508406919,0.5793435712,-0.006269905,-0.8528886565,0.0078378217,-0.0197174045,0.9111941787,-0.25,4
-0.7972278703,-0.4604657695,-0.3024069757,-0.5929982697,0.952815106,0.5762067056,-0.9523296462,-0.0181784819,0.8808325043,-0.3227443831,-0.25,5
-0.7972278703,-0.4604657695,-0.3024069757,-0.5929982697,0.952815106,0.5762067056,-0.9523296462,-0.0181784819,0.8808325043,-0.3227443831,-0.25,5
-0.7972278703,-0.4604657695,-0.3024069757,-0.5929982697,0.952815106,0.5762067056,-0.9523296462,-0.0181784819,0.8808325043,-0.3227443831,-0.25,5
0.0811680699,0.7939654917,-0.327966616,0.0519903058,0.9024402531,-0.1551707507,-0.797883538,0.0766555973,-0.0464915312,0.8306387863,-0.25,4
-0.7811570683,-0.4710998997,-0.333178495,-0.576542971,0.99666933,-0.6174276933,-0.9460843733,0.0169011134,0.8831180152,-0.3225205063,-0.25,5
-0.7811570683,-0.4710998997,-0.333178495,-0.576542971,0.99666933,-0.6174276933,-0.9460843733,0.0169011134,0.8831180152,-0.3225205063,-0.25,5
0.0811680699,0.7939654917,-0.327966616,0.0519903058,0.9024402531,-0.1551707507,-0.797883538,0.0766555973,-0.0464915312,0.8306387863,-0.25,4
2.288479E-4,0.051062068,0.9271872465,-0.934718523,-0.9960073735,-0.219114129,-0.9998485544,-0.7471673705,-0.4316331422,-0.2526353195,-0.25,2
-1.362784E-4,-7.69042E-5,0.9997746936,-0.998333146,-0.9996659802,0.6587262428,-0.9999898798,-0.7904357748,-0.4562059435,-0.3227460984,-0.25,2
-1.362784E-4,-7.69042E-5,0.9997746936,-0.998333146,-0.9996659802,0.6587262428,-0.9999898798,-0.7904357748,-0.4562059435,-0.3227460984,-0.25,2
-1.362784E-4,-7.69042E-5,0.9997746936,-0.998333146,-0.9996659802,0.6587262428,-0.9999898798,-0.7904357748,-0.4562059435,-0.3227460984,-0.25,2
-1.362784E-4,-7.69042E-5,0.9997746936,-0.998333146,-0.9996659802,0.6587262428,-0.9999898798,-0.7904357748,-0.4562059435,-0.3227460984,-0.25,2
-1.362784E-4,-7.69042E-5,0.9997746936,-0.998333146,-0.9996659802,0.6587262428,-0.9999898798,-0.7904357748,-0.4562059435,-0.3227460984,-0.25,2
-1.362784E-4,-7.69042E-5,0.9997746936,-0.998333146,-0.9996659802,0.6587262428,-0.9999898798,-0.7904357748,-0.4562059435,-0.3227460984,-0.25,2
-1.362784E-4,-7.69042E-5,0.9997746936,-0.998333146,-0.9996659802,0.6587262428,-0.9999898798,-0.7904357748,-0.4562059435,-0.3227460984,-0.25,2
-1.362784E-4,-7.69042E-5,0.9997746936,-0.998333146,-0.9996659802,0.6587262428,-0.9999898798,-0.7904357748,-0.4562059435,-0.3227460984,-0.25,2
-0.7972278703,-0.4604657695,-0.3024069757,-0.5929982697,0.952815106,0.5762067056,-0.9523296462,-0.0181784819,0.8808325043,-0.3227443831,-0.25,5
-0.7972278703,-0.4604657695,-0.3024069757,-0.5929982697,0.952815106,0.5762067056,-0.9523296462,-0.0181784819,0.8808325043,-0.3227443831,-0.25,5
-0.8133633544,-0.4713720445,-0.3332683989,-0.5832394273,0.9974177912,-0.3587733319,-0.9487635315,0.0014564542,0.9102087597,-0.322739923,-0.25,5
-0.8133633544,-0.4713720445,-0.3332683989,-0.5832394273,0.9974177912,-0.3587733319,-0.9487635315,0.0014564542,0.9102087597,-0.322739923,-0.25,5
2.288479E-4,0.051062068,0.9271872465,-0.934718523,-0.9960073735,-0.219114129,-0.9998485544,-0.7471673705,-0.4316331422,-0.2526353195,-0.25,2
0.4734252451,-0.2492635589,-0.3201765435,-0.1815439584,0.9399564221,-0.3889380732,-0.9061494634,0.5519890767,-0.2106144731,-0.1242089215,-0.25,3
0.4734252451,-0.2492635589,-0.3201765435,-0.1815439584,0.9399564221,-0.3889380732,-0.9061494634,0.5519890767,-0.2106144731,-0.1242089215,-0.25,3
0.4734252451,-0.2492635589,-0.3201765435,-0.1815439584,0.9399564221,-0.3889380732,-0.9061494634,0.5519890767,-0.2106144731,-0.1242089215,-0.25,3
0.4453151568,-0.2902721048,-0.3209914694,-0.2017251684,0.9461030877,-0.3986779754,-0.909981642,0.5504868312,-0.1800537608,-0.1613814148,-0.25,3
-0.7682084211,-0.4709356591,-0.3331157611,-0.5736911921,0.9964933608,-0.6227980707,-0.9463892936,0.0230743481,0.8722051063,-0.3223908231,-0.25,5
-0.7682084211,-0.4709356591,-0.3331157611,-0.5736911921,0.9964933608,-0.6227980707,-0.9463892936,0.0230743481,0.8722051063,-0.3223908231,-0.25,5
2.288479E-4,0.051062068,0.9271872465,-0.934718523,-0.9960073735,-0.219114129,-0.9998485544,-0.7471673705,-0.4316331422,-0.2526353195,-0.25,2
-0.7682084211,-0.4709356591,-0.3331157611,-0.5736911921,0.9964933608,-0.6227980707,-0.9463892936,0.0230743481,0.8722051063,-0.3223908231,-0.25,5
-0.7682084211,-0.4709356591,-0.3331157611,-0.5736911921,0.9964933608,-0.6227980707,-0.9463892936,0.0230743481,0.8722051063,-0.3223908231,-0.25,5
-0.8023269972,-0.4634267017,-0.3107813564,-0.5904274403,0.9653329775,0.5514723435,-0.952220321,-0.0131989512,0.8894084349,-0.3227445123,-0.25,5
-0.8023269972,-0.4634267017,-0.3107813564,-0.5904274403,0.9653329775,0.5514723435,-0.952220321,-0.0131989512,0.8894084349,-0.3227445123,-0.25,5
-0.7682084211,-0.4709356591,-0.3331157611,-0.5736911921,0.9964933608,-0.6227980707,-0.9463892936,0.0230743481,0.8722051063,-0.3223908231,-0.25,5
-0.7682084211,-0.4709356591,-0.3331157611,-0.5736911921,0.9964933608,-0.6227980707,-0.9463892936,0.0230743481,0.8722051063,-0.3223908231,-0.25,5
-0.0015308309,-8.838369E-4,0.9974998939,-0.9990903836,-0.996250812,0.7001473732,-0.9998963852,-0.789086978,-0.4538680582,-0.3227485354,-0.25,2
-0.0015308309,-8.838369E-4,0.9974998939,-0.9990903836,-0.996250812,0.7001473732,-0.9998963852,-0.789086978,-0.4538680582,-0.3227485354,-0.25,2
-0.0015308309,-8.838369E-4,0.9974998939,-0.9990903836,-0.996250812,0.7001473732,-0.9998963852,-0.789086978,-0.4538680582,-0.3227485354,-0.25,2
-0.0015308309,-8.838369E-4,0.9974998939,-0.9990903836,-0.996250812,0.7001473732,-0.9998963852,-0.789086978,-0.4538680582,-0.3227485354,-0.25,2
-0.0015308309,-8.838369E-4,0.9974998939,-0.9990903836,-0.996250812,0.7001473732,-0.9998963852,-0.789086978,-0.4538680582,-0.3227485354,-0.25,2
-0.7901888776,-0.456388542,-0.2908753915,-0.5965479404,0.9355552523,0.5973617303,-0.9525241052,-0.0250268818,0.8690087458,-0.3227442035,-0.25,5
-0.7901888776,-0.456388542,-0.2908753915,-0.5965479404,0.9355552523,0.5973617303,-0.9525241052,-0.0250268818,0.8690087458,-0.3227442035,-0.25,5
-0.0015308309,-8.838369E-4,0.9974998939,-0.9990903836,-0.996250812,0.7001473732,-0.9998963852,-0.789086978,-0.4538680582,-0.3227485354,-0.25,2
-0.0015308309,-8.838369E-4,0.9974998939,-0.9990903836,-0.996250812,0.7001473732,-0.9998963852,-0.789086978,-0.4538680582,-0.3227485354,-0.25,2
-0.0015308309,-8.838369E-4,0.9974998939,-0.9990903836,-0.996250812,0.7001473732,-0.9998963852,-0.789086978,-0.4538680582,-0.3227485354,-0.25,2
-0.8128757695,-0.4696840658,-0.3284800723,-0.5850297191,0.9915552618,0.3689661959,-0.9525839422,-0.0025648037,0.9073419488,-0.3227444421,-0.25,5
-0.8128757695,-0.4696840658,-0.3284800723,-0.5850297191,0.9915552618,0.3689661959,-0.9525839422,-0.0025648037,0.9073419488,-0.3227444421,-0.25,5
-0.807154835,-0.4713196206,-0.3332056631,-0.5820764258,0.9970614458,-0.4912041179,-0.9479017644,0.0043978908,0.9049656631,-0.3227123146,-0.25,5
-0.807154835,-0.4713196206,-0.3332056631,-0.5820764258,0.9970614458,-0.4912041179,-0.9479017644,0.0043978908,0.9049656631,-0.3227123146,-0.25,5
0.0223605012,0.9001148412,-0.3288607521,0.0380364428,0.8709136085,-0.0122080048,-0.8033251278,0.019222737,-0.013901548,0.9278280228,-0.25,4
0.0214820453,0.8996385945,-0.326013034,-0.0118683925,0.8116952218,-0.0036661133,-0.8153337861,0.0166792525,-0.0143878859,0.9264741739,-0.25,4
0.0137164136,0.7157125175,-0.0473110235,-0.5362859648,-0.5500312192,-0.0325569283,-0.9688035904,-0.1560046519,-0.1054047444,0.6686227181,-0.25,4
0.0223605012,0.9001148412,-0.3288607521,0.0380364428,0.8709136085,-0.0122080048,-0.8033251278,0.019222737,-0.013901548,0.9278280228,-0.25,4
0.023281972,0.8990806887,-0.3297129791,0.0574170838,0.8909011656,-0.0204725913,-0.7990588656,0.0206316411,-0.0141183525,0.9271590301,-0.25,4
0.0137164136,0.7157125175,-0.0473110235,-0.5362859648,-0.5500312192,-0.0325569283,-0.9688035904,-0.1560046519,-0.1054047444,0.6686227181,-0.25,4
0.0223605012,0.9001148412,-0.3288607521,0.0380364428,0.8709136085,-0.0122080048,-0.8033251278,0.019222737,-0.013901548,0.9278280228,-0.25,4
0.0183041166,0.7611901628,-0.1234161375,-0.4694888337,-0.3794155777,-0.029903635,-0.9543910461,-0.1063286525,-0.0818535007,0.7347007583,-0.25,4
0.0223605012,0.9001148412,-0.3288607521,0.0380364428,0.8709136085,-0.0122080048,-0.8033251278,0.019222737,-0.013901548,0.9278280228,-0.25,4
0.0137164136,0.7157125175,-0.0473110235,-0.5362859648,-0.5500312192,-0.0325569283,-0.9688035904,-0.1560046519,-0.1054047444,0.6686227181,-0.25,4
0.023281972,0.8990806887,-0.3297129791,0.0574170838,0.8909011656,-0.0204725913,-0.7990588656,0.0206316411,-0.0141183525,0.9271590301,-0.25,4
-0.8023269972,-0.4634267017,-0.3107813564,-0.5904274403,0.9653329775,0.5514723435,-0.952220321,-0.0131989512,0.8894084349,-0.3227445123,-0.25,5
-0.8023269972,-0.4634267017,-0.3107813564,-0.5904274403,0.9653329775,0.5514723435,-0.952220321,-0.0131989512,0.8894084349,-0.3227445123,-0.25,5
2.288479E-4,0.051062068,0.9271872465,-0.934718523,-0.9960073735,-0.219114129,-0.9998485544,-0.7471673705,-0.4316331422,-0.2526353195,-0.25,2
2.288479E-4,0.051062068,0.9271872465,-0.934718523,-0.9960073735,-0.219114129,-0.9998485544,-0.7471673705,-0.4316331422,-0.2526353195,-0.25,2
-0.8111103027,-0.4689144809,-0.3263180476,-0.5851833464,0.988278479,0.3582074701,-0.952770095,-0.0036344369,0.9047505439,-0.3227397009,-0.25,5
-0.8111103027,-0.4689144809,-0.3263180476,-0.5851833464,0.988278479,0.3582074701,-0.952770095,-0.0036344369,0.9047505439,-0.3227397009,-0.25,5
-0.8111103027,-0.4689144809,-0.3263180476,-0.5851833464,0.988278479,0.3582074701,-0.952770095,-0.0036344369,0.9047505439,-0.3227397009,-0.25,5
-0.8111103027,-0.4689144809,-0.3263180476,-0.5851833464,0.988278479,0.3582074701,-0.952770095,-0.0036344369,0.9047505439,-0.3227397009,-0.25,5
0.0811680699,0.7939654917,-0.327966616,0.0519903058,0.9024402531,-0.1551707507,-0.797883538,0.0766555973,-0.0464915312,0.8306387863,-0.25,4
0.0514412581,0.8484695463,-0.3292657862,0.0676219172,0.9072544445,-0.1025859536,-0.793027866,0.0480569042,-0.0297674084,0.8808132587,-0.25,4
0.0415451673,0.8665086916,-0.3297084086,0.0724486329,0.9086235673,-0.0796113722,-0.7923423078,0.0385738092,-0.02417831,0.8974235257,-0.25,4
0.0415451673,0.8665086916,-0.3297084086,0.0724486329,0.9086235673,-0.0796113722,-0.7923423078,0.0385738092,-0.02417831,0.8974235257,-0.25,4
2.288479E-4,0.051062068,0.9271872465,-0.934718523,-0.9960073735,-0.219114129,-0.9998485544,-0.7471673705,-0.4316331422,-0.2526353195,-0.25,2
-0.8143661724,-0.4712771908,-0.3329920126,-0.583552313,0.9974896292,-0.0921345242,-0.9539688404,7.25952E-4,0.9109081887,-0.3227425372,-0.25,5
-0.8143661724,-0.4712771908,-0.3329920126,-0.583552313,0.9974896292,-0.0921345242,-0.9539688404,7.25952E-4,0.9109081887,-0.3227425372,-0.25,5
-0.8134143118,-0.4713353391,-0.3331656946,-0.5832923192,0.9974485728,-0.2571867718,-0.951922159,0.0013403302,0.9101986876,-0.3227395634,-0.25,5
-0.8134143118,-0.4713353391,-0.3331656946,-0.5832923192,0.9974485728,-0.2571867718,-0.951922159,0.0013403302,0.9101986876,-0.3227395634,-0.25,5
0.0246115732,0.8971365047,-0.3303168202,0.0730261259,0.9060788469,-0.031649334,-0.7959238312,0.0222961258,-0.0146439012,0.92557913,-0.25,4
0.0216832165,0.8883134094,-0.3107021611,-0.1508406919,0.5793435712,-0.006269905,-0.8528886565,0.0078378217,-0.0197174045,0.9111941787,-0.25,4
-0.8141071449,-0.4709347211,-0.332026495,-0.5837602511,0.9963981483,0.1072160773,-0.9540719207,-7.6787E-6,0.9101950252,-0.3227415259,-0.25,5
-0.8141071449,-0.4709347211,-0.332026495,-0.5837602511,0.9963981483,0.1072160773,-0.9540719207,-7.6787E-6,0.9101950252,-0.3227415259,-0.25,5
0.0215657472,0.8925711377,-0.3163598714,-0.1121102016,0.6544346014,-0.0044817509,-0.8419576152,0.0110636936,-0.0177236118,0.9169069533,-0.25,4
-0.7805419261,-0.4508085237,-0.275093414,-0.6014180583,0.9119147201,0.6153246457,-0.9528408375,-0.0343929828,0.8528156052,-0.3227439783,-0.25,5
-0.7805419261,-0.4508085237,-0.275093414,-0.6014180583,0.9119147201,0.6153246457,-0.9528408375,-0.0343929828,0.8528156052,-0.3227439783,-0.25,5
-4.47922E-5,3.58643E-5,0.9998368893,-0.9913892522,-0.999886692,0.5300166452,-0.9999966991,-0.7904721741,-0.4563292433,-0.3226632289,-0.25,2
-4.47922E-5,3.58643E-5,0.9998368893,-0.9913892522,-0.999886692,0.5300166452,-0.9999966991,-0.7904721741,-0.4563292433,-0.3226632289,-0.25,2
-4.47922E-5,3.58643E-5,0.9998368893,-0.9913892522,-0.999886692,0.5300166452,-0.9999966991,-0.7904721741,-0.4563292433,-0.3226632289,-0.25,2
-4.47922E-5,3.58643E-5,0.9998368893,-0.9913892522,-0.999886692,0.5300166452,-0.9999966991,-0.7904721741,-0.4563292433,-0.3226632289,-0.25,2
-4.47922E-5,3.58643E-5,0.9998368893,-0.9913892522,-0.999886692,0.5300166452,-0.9999966991,-0.7904721741,-0.4563292433,-0.3226632289,-0.25,2
-4.47922E-5,3.58643E-5,0.9998368893,-0.9913892522,-0.999886692,0.5300166452,-0.9999966991,-0.7904721741,-0.4563292433,-0.3226632289,-0.25,2
-4.47922E-5,3.58643E-5,0.9998368893,-0.9913892522,-0.999886692,0.5300166452,-0.9999966991,-0.7904721741,-0.4563292433,-0.3226632289,-0.25,2
-4.47922E-5,3.58643E-5,0.9998368893,-0.9913892522,-0.999886692,0.5300166452,-0.9999966991,-0.7904721741,-0.4563292433,-0.3226632289,-0.25,2
-4.47922E-5,3.58643E-5,0.9998368893,-0.9913892522,-0.999886692,0.5300166452,-0.9999966991,-0.7904721741,-0.4563292433,-0.3226632289,-0.25,2
-4.47922E-5,3.58643E-5,0.9998368893,-0.9913892522,-0.999886692,0.5300166452,-0.9999966991,-0.7904721741,-0.4563292433,-0.3226632289,-0.25,2
-0.0053330837,-0.0030796006,0.9912891813,-0.9971642844,-0.986937675,0.7054724757,-0.999640495,-0.7854040017,-0.447490643,-0.3227484854,-0.25,2
